/* Generated by Edge Impulse
*
* Permission is hereby granted, free of charge, to any person obtaining a copy
* of this software and associated documentation files (the "Software"), to deal
* in the Software without restriction, including without limitation the rights
* to use, copy, modify, merge, publish, distribute, sublicense, and/or sell
* copies of the Software, and to permit persons to whom the Software is
* furnished to do so, subject to the following conditions:
*
* The above copyright notice and this permission notice shall be included in
* all copies or substantial portions of the Software.
*
* THE SOFTWARE IS PROVIDED "AS IS", WITHOUT WARRANTY OF ANY KIND, EXPRESS OR
* IMPLIED, INCLUDING BUT NOT LIMITED TO THE WARRANTIES OF MERCHANTABILITY,
* FITNESS FOR A PARTICULAR PURPOSE AND NONINFRINGEMENT. IN NO EVENT SHALL THE
* AUTHORS OR COPYRIGHT HOLDERS BE LIABLE FOR ANY CLAIM, DAMAGES OR OTHER
* LIABILITY, WHETHER IN AN ACTION OF CONTRACT, TORT OR OTHERWISE, ARISING FROM,
* OUT OF OR IN CONNECTION WITH THE SOFTWARE OR THE USE OR OTHER DEALINGS IN THE
* SOFTWARE.
*/
// Generated on: 08.09.2021 08:59:32

#include <stdio.h>
#include <stdlib.h>
#include <vector>
#include "edge-impulse-sdk/tensorflow/lite/c/builtin_op_data.h"
#include "edge-impulse-sdk/tensorflow/lite/c/common.h"
#include "edge-impulse-sdk/tensorflow/lite/micro/micro_mutable_op_resolver.h"
#include "edge-impulse-sdk/porting/ei_classifier_porting.h"

#if EI_CLASSIFIER_PRINT_STATE
#if defined(__cplusplus) && EI_C_LINKAGE == 1
extern "C" {
    extern void ei_printf(const char *format, ...);
}
#else
extern void ei_printf(const char *format, ...);
#endif
#endif

#if defined __GNUC__
#define ALIGN(X) __attribute__((aligned(X)))
#elif defined _MSC_VER
#define ALIGN(X) __declspec(align(X))
#elif defined __TASKING__
#define ALIGN(X) __align(X)
#endif

using namespace tflite;
using namespace tflite::ops;
using namespace tflite::ops::micro;

namespace {

constexpr int kTensorArenaSize = 496;

#if defined(EI_CLASSIFIER_ALLOCATION_STATIC)
uint8_t tensor_arena[kTensorArenaSize] ALIGN(16);
#elif defined(EI_CLASSIFIER_ALLOCATION_STATIC_HIMAX)
#pragma Bss(".tensor_arena")
uint8_t tensor_arena[kTensorArenaSize] ALIGN(16);
#pragma Bss()
#elif defined(EI_CLASSIFIER_ALLOCATION_STATIC_HIMAX_GNU)
uint8_t tensor_arena[kTensorArenaSize] ALIGN(16) __attribute__((section(".tensor_arena")));
#else
#define EI_CLASSIFIER_ALLOCATION_HEAP 1
uint8_t* tensor_arena = NULL;
#endif

static uint8_t* tensor_boundary;
static uint8_t* current_location;

template <int SZ, class T> struct TfArray {
  int sz; T elem[SZ];
};
enum used_operators_e {
  OP_FULLY_CONNECTED, OP_SOFTMAX,  OP_LAST
};
struct TensorInfo_t { // subset of TfLiteTensor used for initialization from constant memory
  TfLiteAllocationType allocation_type;
  TfLiteType type;
  void* data;
  TfLiteIntArray* dims;
  size_t bytes;
  TfLiteQuantization quantization;
};
struct NodeInfo_t { // subset of TfLiteNode used for initialization from constant memory
  struct TfLiteIntArray* inputs;
  struct TfLiteIntArray* outputs;
  void* builtin_data;
  used_operators_e used_op_index;
};

TfLiteContext ctx{};
TfLiteTensor tflTensors[11];
TfLiteEvalTensor tflEvalTensors[11];
TfLiteRegistration registrations[OP_LAST];
TfLiteNode tflNodes[4];

const TfArray<2, int> tensor_dimension0 = { 2, { 1,177 } };
const TfArray<1, float> quant0_scale = { 1, { 11.835293769836426, } };
const TfArray<1, int> quant0_zero = { 1, { 40 } };
const TfLiteAffineQuantization quant0 = { (TfLiteFloatArray*)&quant0_scale, (TfLiteIntArray*)&quant0_zero, 0 };
const ALIGN(8) int32_t tensor_data1[118] = { 0, 0, -1, 0, 0, 0, 0, 0, 0, 0, 0, 0, 0, -1, 0, 0, 0, 0, 0, 0, 0, 0, 0, 0, 0, 0, 0, 0, 0, 0, 0, 0, 0, 0, 0, 0, 0, 0, 0, 0, 0, 0, 0, 0, 0, 0, 0, 0, 0, 0, 0, 0, 0, 0, 0, 0, 0, 0, 0, 0, 0, 0, 0, 0, 0, 0, 0, 0, 0, 0, 0, 0, 0, 0, 0, 0, 0, 0, 0, 0, 0, 0, 0, -1, 0, 0, 0, 0, 0, 0, 0, 0, 0, 0, 0, 0, 0, 0, 0, 0, 0, 0, 0, 0, 0, 0, 0, 0, 0, 0, 0, 0, 0, 0, 0, 0, 0, 0, };
const TfArray<1, int> tensor_dimension1 = { 1, { 118 } };
const TfArray<1, float> quant1_scale = { 1, { 0.021241676062345505, } };
const TfArray<1, int> quant1_zero = { 1, { 0 } };
const TfLiteAffineQuantization quant1 = { (TfLiteFloatArray*)&quant1_scale, (TfLiteIntArray*)&quant1_zero, 0 };
const ALIGN(8) int32_t tensor_data2[33] = { 0, 0, 0, 0, 0, 0, 0, 0, 0, 0, 0, 0, 0, 0, 0, 0, 0, 0, 0, 0, 0, 0, 0, 0, 0, 0, 0, 0, 0, 0, 0, 0, 0, };
const TfArray<1, int> tensor_dimension2 = { 1, { 33 } };
const TfArray<1, float> quant2_scale = { 1, { 0.083113372325897217, } };
const TfArray<1, int> quant2_zero = { 1, { 0 } };
const TfLiteAffineQuantization quant2 = { (TfLiteFloatArray*)&quant2_scale, (TfLiteIntArray*)&quant2_zero, 0 };
const ALIGN(8) int32_t tensor_data3[3] = { 0, 0, 0, };
const TfArray<1, int> tensor_dimension3 = { 1, { 3 } };
const TfArray<1, float> quant3_scale = { 1, { 0.01980164647102356, } };
const TfArray<1, int> quant3_zero = { 1, { 0 } };
const TfLiteAffineQuantization quant3 = { (TfLiteFloatArray*)&quant3_scale, (TfLiteIntArray*)&quant3_zero, 0 };
const ALIGN(8) int8_t tensor_data4[118*177] = { 
  -60, 23, -57, -36, -41, -64, 26, -20, 63, -49, -10, 61, -29, 58, 73, 37, 16, 30, -59, 39, -30, -43, -32, 31, -76, 67, -8, 77, 14, -17, 32, 22, 15, 48, 49, 57, 34, -18, -51, -71, 47, 20, -11, -43, 19, 12, 1, -15, 58, -73, 55, 13, 47, -68, -70, 23, 83, -45, -52, -55, -24, -56, -29, -17, -3, -20, 6, -52, 34, -30, -83, 14, -57, 10, 44, 71, 61, 38, -56, -14, -31, 73, 12, 46, -20, 58, -12, 76, -28, 56, 43, 52, 29, -20, 58, 37, -47, 8, -51, 72, 13, 68, -64, 3, 42, -12, 62, -9, 42, -43, -23, 72, 29, -29, -45, -17, 21, 23, 38, 51, 33, 56, -24, -42, 54, -37, -32, -21, 40, -32, -78, 32, -41, 65, -9, 60, 16, -55, -48, 54, -32, -76, 18, -3, -58, 59, -71, -55, -31, 13, -46, 41, 67, 65, 52, -20, -73, 16, 38, -75, -32, 54, 19, -69, 49, -73, 44, 75, -56, -62, 0, 66, 50, -76, -4, 5, -51, 
  15, -4, 30, 58, -33, 44, 71, -72, 44, 75, -60, -47, 62, -35, 39, -30, -44, -76, 0, -29, -67, 54, -45, -25, -60, 28, 22, 24, 66, 63, 34, -5, 54, 62, -3, 30, -58, 75, -56, 76, 6, 57, 19, -80, -24, 7, 77, 15, -39, 44, 31, 10, -8, -52, -31, -64, -14, 9, 19, 50, -48, 67, 69, 11, -55, 3, 24, 33, 11, 69, -35, -27, -4, -61, -52, -16, 50, 0, -60, 77, -36, -73, 46, 49, 31, -61, 52, 59, 41, 59, -72, 14, 6, -47, -51, 37, -21, 64, 57, -43, -19, 4, 3, -10, -58, 8, -57, 24, 11, -26, 47, 77, -47, -12, 62, 55, -28, -40, -36, 38, -65, -28, 42, 34, -2, -9, 45, -26, -15, 11, 39, 75, 8, 1, -77, 20, -60, 73, 61, 14, 1, 23, -15, 21, 31, 46, -83, 61, 67, 8, -74, 33, 69, 47, 34, -10, -73, -68, 54, -36, -17, 59, -48, -76, -6, 8, 19, -22, -66, -50, 0, 26, 63, -11, 77, -33, -78, 
  4, -56, -47, 44, 12, -28, 34, -95, 74, -38, 45, -12, 33, 58, -27, -3, 29, 65, 40, -22, -44, 74, -56, -61, 15, 96, -20, -43, -34, 90, -21, -47, -29, 42, 45, 46, 23, 83, 83, -9, 21, -5, -22, -26, 47, 64, -40, 69, 9, -59, 68, -23, -99, 16, 36, -71, -59, -64, 67, 50, -55, 37, -21, -59, 0, 50, -65, -27, -19, -19, -40, 34, 2, 18, -26, 67, 86, -40, 86, 85, -42, -12, -51, -30, -40, 74, 33, -29, 87, 48, 2, 10, -11, 10, -2, -38, 15, -62, -11, 80, -58, 38, -21, 16, 11, 23, -42, 47, -17, 14, 39, -18, -2, 12, 40, -46, -64, -6, -38, -21, -29, 60, -16, -50, 5, -12, -67, 48, -8, 62, 10, -62, -68, 2, -28, 6, 24, -23, 53, -19, 17, -36, 26, 27, 1, 10, 8, 30, 69, 84, -39, -68, -28, -45, 29, 83, 12, 1, -51, -49, -17, -43, -44, 80, -11, 58, -68, 11, -9, -67, 61, 22, -74, -33, -18, -50, 81, 
  -78, 47, 58, -14, -64, -36, -64, -35, 60, -36, -56, -39, 57, -67, 52, -56, -71, 15, -10, 44, 18, 27, 57, 52, -18, 39, 55, 72, -82, 62, 36, 39, -34, -16, -47, -54, -75, -37, 54, 1, 60, 45, -22, -34, 75, 35, -79, -51, 60, -11, 79, 65, -56, -70, 72, -33, -53, 72, -11, -43, 68, 25, 48, -48, -51, 20, 75, -59, -39, -62, 46, 38, 31, 5, -63, -30, 36, -8, 0, -53, 72, 55, -67, 36, -31, 40, -56, -15, -30, 43, 75, 11, 22, -45, -34, 81, -5, 47, -60, -53, 40, -44, -22, -59, -61, -53, -4, 81, -32, 42, 32, 13, -8, -18, -18, -21, -32, -23, 8, 79, 67, -45, -7, -72, -43, 22, 10, -77, -17, -59, -71, -67, -16, -40, 47, -18, 10, -58, 58, 61, -42, -24, -33, -76, 44, 8, 20, 13, -27, 35, 48, 29, -55, -7, 60, 79, 69, 62, -45, 4, -13, 31, 7, 16, 22, 35, 75, 20, 53, 74, 13, 50, -35, 42, -67, -25, 71, 
  -2, -74, -47, -12, 42, 4, -42, -10, 42, -19, 17, -56, -43, -44, 29, -57, 5, -50, 12, 46, -68, -64, 68, 8, 38, -14, 38, 40, 40, 3, -74, -21, 18, 24, 67, -63, 55, -37, -43, -39, -58, 34, 18, 63, -63, 25, -38, 16, 0, 67, 57, -51, 24, -22, -67, 11, 1, 72, 4, 49, -10, 45, -60, 69, 9, 19, 30, -37, -6, -63, 32, -38, 78, 35, 54, -26, 45, -67, 21, -15, -69, 40, -57, -71, -27, -10, -48, 13, -42, -40, -26, 72, -70, 22, -7, 67, 12, 74, 65, -6, -19, -49, 47, -3, 1, -24, -42, 4, 76, -47, 11, 1, -26, -37, -17, 71, 38, 33, -12, 62, 74, -23, 37, -18, 42, -47, -44, 78, 44, -31, -9, 72, -43, 1, 6, 28, -15, 40, -81, -1, 12, 66, -60, 52, -56, 35, -65, 5, 58, -12, -35, -35, -27, -11, -73, 15, 62, 2, -68, 74, 63, -24, -51, 34, 8, -75, 1, -26, -72, 46, -71, -39, 43, 75, -36, 67, -23, 
  40, -43, -12, -70, -53, 9, 39, -17, -8, 76, 4, 22, 43, 48, -35, 43, 41, -78, -66, 54, 45, -18, 5, -26, -76, 7, -63, 53, -63, -30, -20, 80, -73, -45, 14, -53, 45, 20, 69, 1, 32, -4, -34, 39, 80, 49, -41, 70, -9, 54, -52, -32, 46, -35, 64, 41, -72, -12, -18, -1, 27, 1, -51, -72, -18, 18, 17, -15, 13, 37, 17, -45, -13, 44, 63, 46, 69, -52, -15, 82, -16, -32, -64, 1, -17, 31, -66, -69, 90, 13, -44, -40, -57, 37, 70, -27, 62, 5, 4, -4, -26, -15, 20, 29, -72, -54, -57, -48, -16, -22, -53, -56, -26, 3, 24, 64, 33, 16, 50, -42, -32, -64, -62, 49, -37, 11, -2, -5, 37, -73, 43, -74, -71, 63, 56, -41, -5, -16, -21, 19, -46, -40, 80, 20, 61, 54, 80, -5, 66, -15, 10, -31, -61, -75, -35, 37, -6, 63, 18, -20, -10, 60, 9, -58, -44, 41, 59, -50, 39, -22, 49, -14, -49, 36, -29, 0, 0, 
  -58, -67, -51, 52, 60, 80, -79, 9, 50, -61, 3, -1, 30, 49, -22, 29, 60, 63, 81, -24, 23, 70, 71, -26, -25, 77, 23, 63, 54, -27, 9, -7, -38, 50, -3, -15, -44, 65, -36, 69, -26, -76, 56, -81, -24, -63, -55, 9, 64, -30, -2, 60, 44, -21, -66, -33, 24, -67, -12, -66, -42, 65, 74, -67, 3, -59, -37, 60, -51, 72, -33, -33, 28, -49, -33, -2, -61, 77, -4, -26, 23, -25, -60, 20, 72, -3, -49, 11, -66, 83, 19, 71, 1, 63, 92, 0, -18, -32, -8, -39, 64, 35, -74, 74, 40, 24, 19, -41, 54, -23, -42, 2, 33, -85, 9, -27, -41, -21, 23, 5, 15, -17, -9, 45, -8, -73, -45, 33, 49, -32, 26, -5, -75, 65, -64, -65, 38, 32, 9, -32, -51, 18, 74, 62, 38, 59, -25, 25, 44, 30, -10, 77, 59, 49, -11, -3, -17, 29, 88, 20, -41, -36, 35, -13, 52, -66, 56, -72, 41, 96, -3, -24, 2, 15, -66, 50, -43, 
  -21, 19, 16, 60, -70, 45, -20, -6, 3, 82, -43, 2, -23, -70, -12, -32, 36, -56, -42, 23, -36, 18, -40, 40, 14, -5, -40, -8, -11, 78, 12, 59, -29, -19, 14, 11, -9, -73, 60, 13, -73, 44, -67, 45, 57, -73, 43, 39, 13, 6, 25, 64, 82, -50, 59, -28, -25, 83, -27, -72, -27, -36, 28, 82, 22, 76, 9, -55, 19, 83, 66, 2, -39, -66, 48, 17, -49, -28, -68, -47, 64, 15, 69, -57, -66, -53, 70, -2, -43, 47, -10, 70, 77, -39, -16, 51, -23, 56, -34, 54, 17, -59, -74, 29, -15, -4, -38, 31, -57, -19, 69, 57, 61, 10, 59, 34, -52, -12, -75, -8, -18, 0, 2, 23, -7, -42, -23, 66, -68, 60, -44, -6, -31, 2, 56, 77, 46, 2, 15, 76, 25, 69, 39, 31, -59, -18, -40, 35, 18, 82, -43, -69, 30, 66, 56, -46, -73, 35, 6, 0, -11, -44, -50, -9, -69, -28, -62, -16, -21, -13, -39, 78, -3, 22, -49, 54, -13, 
  30, 0, -9, 68, -39, -7, 26, -46, -40, 0, 11, -71, -4, -46, 52, -38, -63, -33, 24, -72, 54, -53, -50, -22, -72, 12, -40, 42, -22, -57, 71, -20, 40, -30, -41, 14, -72, 49, 77, 26, -4, -28, -34, -24, 50, 41, 55, 75, 65, -45, 16, 76, 9, 50, 69, 63, 45, 31, 69, -5, 48, 17, -8, -75, 104, 37, -28, 79, 54, 31, 35, 42, 32, 66, 27, -64, 70, -13, 23, 50, 79, 65, 72, 3, 25, -42, 29, -50, 12, -67, -45, 29, 73, 40, 46, 13, -8, -80, 6, -39, -49, 66, 10, -48, -4, 21, -62, 43, 37, -46, 71, -70, -66, -35, 71, -65, 72, -68, -9, 28, 60, -74, -50, 51, 38, 43, -67, 16, 28, -19, -61, -74, -58, 42, -6, -61, -13, -43, -39, 41, -53, -1, 4, -15, -9, 8, 14, -40, 49, 48, 5, -10, 13, -34, 40, 42, -10, 48, -6, -53, 11, -36, -62, 21, -47, -19, 21, -45, -45, 25, -34, -10, -1, 58, -70, 38, 78, 
  4, 10, 68, 79, 41, -74, -68, -24, -5, 79, 25, 24, -30, 20, -75, -69, 58, -33, 46, -74, -49, -57, -33, 63, 4, 74, -36, -26, 40, 24, -31, 13, 3, -69, -41, -29, 53, 9, 34, 60, -2, 58, 67, 82, 60, -33, -33, -54, -44, 8, 34, 73, 58, 58, -71, -28, -7, -3, 69, 32, 75, -81, 0, 33, 34, -12, -7, -5, -43, 72, -34, -47, -4, -51, 57, -9, -41, -31, -26, 42, 23, -67, -19, -31, 5, -60, 12, -2, 34, -8, 36, 7, 72, 5, 55, -68, 68, -65, -39, 13, -30, -68, -37, -12, -58, -42, 1, -60, -34, 58, -64, -39, 56, 25, 12, 6, 5, -65, 47, -17, 67, -33, -18, -6, -35, -13, -55, -48, -66, 77, -19, -24, -29, -59, -13, -38, -55, -47, -9, 63, -46, 51, -77, 30, 37, -24, -49, -60, 72, 16, 69, -20, -70, 23, 70, 45, -9, -17, -69, -53, -16, 57, -35, 9, -63, -72, 44, -2, 73, -55, 44, -62, -23, -53, 67, -44, 15, 
  -61, -15, -72, 19, -34, -47, 51, 56, -74, -61, 47, 73, 41, -3, 25, 53, 7, 78, -34, 5, 53, 57, -30, -51, 15, 16, -10, 12, -65, -49, 6, 57, -5, 47, -57, -64, -43, -52, -17, -21, 42, 37, 10, 58, 2, -16, -25, 57, -30, -7, 39, -70, -2, -30, 34, 28, 46, -36, 9, -32, -55, -72, -63, 67, -68, 31, 6, -69, -20, -35, -36, -57, -77, -9, -4, -16, 4, -2, 4, -15, 45, -76, 6, -22, -18, 6, 41, 70, 96, 37, 10, -50, 52, -14, -38, 8, 58, -37, -45, 21, 20, -30, -41, -4, -58, 74, -31, 36, 24, 33, -38, 72, 27, 54, 61, 63, 55, 35, 2, 41, -23, -72, 29, -12, -52, -62, -49, -39, 85, 49, 19, -69, 72, -43, 58, 39, 3, -63, -43, -41, -61, -51, 15, -26, 14, 60, 85, -18, 41, -63, 28, 57, -3, -5, -56, -17, -31, -20, 33, 13, 81, 31, 46, 65, -53, 40, -31, -35, 32, 78, -35, 72, 56, -71, -49, -4, -75, 
  70, -12, -58, 57, -16, 61, 15, 45, 72, -13, 29, 64, 70, 73, 8, -68, 40, 22, -28, 46, -61, 32, -14, -28, 14, 14, -44, -6, -82, 7, 27, 70, -79, -2, -49, 19, 72, -85, -64, -53, -47, -11, 66, -20, 73, 10, 10, 66, -66, 43, -3, 23, 43, -59, -54, -12, -36, -28, -25, 47, -40, -53, -33, -49, -57, -66, -11, 71, 45, -48, 48, 18, 80, -63, 17, 25, 34, 77, -47, 31, -26, -10, 17, 48, 7, -42, 56, 37, -58, 43, -74, 27, 47, 69, -50, -52, 67, 33, -43, 77, 11, 15, -6, -28, 5, 42, 26, -74, -35, -9, -22, 65, 7, 21, 83, 49, 46, 46, -16, -3, 34, 70, 74, -12, 44, -12, 46, -27, -17, 53, -47, -47, 43, -6, -6, 10, -19, -23, 25, 47, 69, -48, 59, -78, -6, -79, 67, 80, 50, 8, 81, 30, -44, 45, -56, -58, 20, -25, -38, 49, 52, -37, 25, -30, 3, 62, 27, 0, -46, -67, -67, 75, 35, 67, -31, -16, 34, 
  36, 35, 2, 28, 4, -55, -33, -65, 52, 45, 45, -43, -44, 35, -51, 41, -13, -54, -61, 28, 53, 38, -24, -52, 24, -28, 65, 40, -46, 76, 73, -19, 30, 73, 63, -17, -29, -28, -66, -29, -60, -38, 69, 66, -31, 47, -57, 42, -67, 4, -64, -36, -47, 23, 7, -3, -58, 38, 42, -68, -16, 80, -18, 60, 7, 74, 3, -7, 47, 48, -6, -20, -23, 23, -74, 27, 18, 64, -66, 67, -43, 53, 63, 54, -73, -35, 48, 58, 82, 25, -1, -31, 11, 52, 3, 13, -6, -17, 16, 35, 35, 13, -17, -62, -63, 32, 64, -69, -55, -19, 6, 15, 20, 70, -32, 38, -34, -4, 47, 65, 16, 22, 49, 28, 12, -61, -9, 43, -69, -56, -35, -18, 31, 60, 35, 24, 59, -56, 71, 90, 67, 87, 29, 64, -13, 24, 8, 23, 40, -50, 83, -40, -23, 71, 90, 45, 20, 24, -26, 11, 81, -31, 55, 71, 75, 77, -42, 23, 41, 11, -56, 83, -30, 75, 46, 64, -24, 
  15, 23, -35, 11, -48, 1, -19, -27, 69, 33, -28, 50, -26, 9, 5, -18, 67, -14, -11, -77, -54, 74, 56, 52, -44, 74, -22, 85, -33, 50, -25, -65, 38, 81, -69, 77, 23, 52, 24, 36, 79, -69, -3, -69, -49, -72, -43, -70, 11, -47, -22, -37, 77, -32, -54, -34, -24, -23, 80, -51, 30, -27, 13, 57, -32, 54, -19, -52, 6, 5, -35, 57, -49, -50, -12, -38, -9, 72, 61, -44, 44, -15, -73, 77, 70, 37, 20, 77, -53, -8, 56, 16, 12, -10, 81, 6, -69, -35, 57, 0, -46, -30, 74, -29, 24, -24, -53, 70, 22, 38, 1, -21, -27, 16, -33, 51, -10, 40, -4, -46, 40, 41, 68, -52, -47, 63, -45, 81, 18, -55, -55, -63, 67, -52, 54, 29, -37, -55, -5, 77, -64, 63, 78, -30, -51, -47, 34, 60, -26, 57, -52, -24, -46, 43, -23, -28, -14, 33, 1, 58, -44, 82, 57, 47, -3, -42, 18, -44, -31, 73, 43, 5, -10, 7, 23, -56, -17, 
  -43, 21, 12, 60, 20, 2, 22, 51, 32, 26, 61, 46, -9, 41, -1, 71, 25, -43, -39, -43, -34, -18, -35, 47, -59, 67, -57, -14, -45, 61, 42, 3, -61, -32, 66, 9, 72, -64, 26, -31, 68, -68, 39, 38, 38, -66, -58, 34, 16, 14, -34, -55, -9, -46, -42, 50, 22, -44, 34, 43, -28, -66, 42, -31, 11, -26, -5, -44, -4, -61, -46, 20, 68, -9, 39, 40, -43, -4, 4, 38, -8, 77, -54, 41, -44, -5, 64, 44, -36, -36, 67, -8, -12, -28, -27, 2, -64, -11, 19, 8, 19, -43, 64, -1, 33, -61, -72, -66, 46, -16, 8, -43, 27, -59, -39, -72, 28, 71, -49, 28, -33, -29, 20, -68, -24, 46, 72, -2, -17, -24, -73, -35, -20, -59, 73, -30, -30, 74, 66, 45, -22, 71, 8, 41, 15, 64, -23, -66, -1, -62, -40, 79, 70, 48, -70, 65, 28, 70, -24, 68, -32, -66, 77, -11, -9, 6, -9, 36, -8, 74, -8, -20, 2, 61, 53, 77, -62, 
  -48, 39, 7, 64, 1, 35, 17, 30, 53, 67, -45, 52, -42, 59, -7, -25, -71, 61, 5, 47, 64, -67, 64, -36, -51, -14, 78, -4, -58, 71, -9, -34, -3, -44, 71, -48, -68, -35, 74, -18, 62, 73, -30, -36, 35, -45, -38, -20, -5, 6, -80, 30, -57, 20, 78, -26, 56, -76, -65, -28, -63, 61, 15, 4, 52, -36, -61, 20, 70, -77, -62, -15, -16, -79, 72, 9, 57, -36, -6, 53, -12, -11, 44, 20, 64, -66, 12, 65, 44, 41, 7, -10, -29, 57, 39, 40, 24, 8, 75, 27, -31, 82, 5, 22, -72, -20, 62, 52, -61, 22, 20, 71, 27, -70, -69, 23, 28, -9, -11, 66, -15, -8, 70, 43, 36, 44, -9, -46, -49, -75, 49, 51, 12, -23, 32, -3, -39, -4, 10, -86, 44, -8, -27, -49, 1, -42, -34, -46, 63, -32, 50, -78, -34, -36, -34, -57, 45, 51, 17, 56, -40, -67, -6, -36, 18, -42, -66, -43, -16, -49, -73, 18, 5, 70, -60, 39, 13, 
  -53, 45, -60, -22, -8, 35, 45, 9, -39, -40, -28, 8, -66, -64, -22, 4, -1, 22, -57, 81, 17, 2, 0, -9, -1, 94, 49, 12, 52, -17, 80, 34, -28, 30, 7, -20, -5, 58, -47, -18, -35, -7, 13, -59, 2, -12, -47, 75, -54, -30, -24, -73, 58, 47, 74, 63, -67, 63, -41, -7, 58, -45, -38, 60, 47, -22, 28, -55, -28, -73, -33, 28, -62, 22, 67, -57, 9, -30, -51, -26, -26, -8, -70, -16, 36, -4, 16, 7, 67, -15, -29, 12, -24, 35, 11, 3, 25, 26, 25, 15, 69, -34, -6, 4, -2, 3, 68, 43, -40, -51, -47, -24, -28, -31, 75, -6, 7, 72, -70, 77, 9, 50, 59, -41, -36, -11, 31, 14, 16, -67, 22, 30, -13, 44, 52, -6, 76, -37, 32, 41, -32, -16, -58, -53, 2, -25, 14, 37, 47, 48, 54, -96, 24, 77, 2, -10, -27, 54, 0, -12, 23, -65, -56, -58, 69, -42, 47, 27, 71, -21, -64, 23, -53, -25, -9, -73, -52, 
  -30, -48, 33, 64, 80, -68, -5, 15, -16, -24, -36, 39, -62, 26, 23, 74, -9, -42, 17, 56, 80, 4, -56, -11, -62, 38, -61, 0, 57, -4, -55, 55, 20, -36, -10, 11, -60, -40, 72, -35, 37, 7, 76, -61, -71, 0, -39, 23, 7, -62, -75, 8, -55, 12, 52, 25, -25, -29, 32, 4, -71, 22, 46, -3, 76, -59, -68, 48, 3, 4, -42, -34, -57, -34, 44, 14, -49, 66, -58, -14, 36, 35, 28, 49, 14, -70, 5, -71, 41, 47, 13, -40, 10, 18, -66, 11, 32, -46, 37, 74, 49, 22, 64, -57, 17, -8, 27, 13, 28, -28, 33, -14, -69, 3, -24, 60, 57, 48, 22, 23, -73, 13, 7, -67, -30, -63, -74, 19, 41, -77, 52, 79, 6, 29, 23, 38, -52, 28, 32, -26, 8, -1, -15, -31, -68, -65, -49, 56, -2, -27, -61, -81, -80, 44, 40, 27, 61, 51, 32, 56, -7, -26, 69, -46, 67, -55, -65, 65, -8, 9, -63, 8, -69, -63, 2, -35, 59, 
  -50, -14, -74, -75, -8, -28, 16, -22, 77, 2, 42, -25, -16, 20, -65, -20, 0, -10, 66, -31, 39, 32, -69, 57, -22, -31, 20, -18, -61, -42, -3, 53, 22, 31, 24, 1, 49, 57, -14, -20, 59, 77, 63, -42, -10, -46, 65, 66, -50, 26, -24, 68, 45, -71, 17, -64, 55, -8, 77, -49, 44, -3, 46, -57, -65, 9, 78, -35, -59, -21, -16, 37, -73, 23, -79, 44, -51, -61, -69, 27, -28, -27, -90, 55, 7, 66, -31, 46, -72, -32, -71, 40, 78, 24, -55, -60, 6, -10, 1, -32, -80, 65, 14, -52, -20, 16, 54, 25, 9, -59, 47, -60, -5, 69, -78, 14, 9, 22, -65, -42, 80, -55, 29, -41, 19, 25, -55, 2, 79, 38, 31, 73, -52, 56, -63, -43, 63, 20, -20, 59, 14, -16, 32, -1, 32, 62, -18, 63, -19, -49, -51, -10, 24, -5, 28, 44, -36, 46, -50, 30, 46, 67, -74, 69, 43, -61, -43, -50, 18, 50, 72, 12, -43, -24, -69, 30, 47, 
  -21, 14, -26, 22, 53, -60, -77, 55, 47, 71, -25, -19, -13, 15, 69, 8, -56, -1, -52, -25, 54, -26, -46, -37, 65, -9, -31, 16, 11, 48, -46, -52, 51, -58, -81, -8, 31, 73, 6, -10, 83, 77, 68, 2, -61, -27, 64, -71, 79, 40, 37, 36, -32, 55, -47, -44, 70, 25, 25, -42, 2, -64, -40, -8, -51, 57, 33, -67, 40, 13, 24, 16, -33, -77, -29, -22, 50, 16, 44, 59, 11, -60, 71, 18, 75, -40, -69, -7, -38, 8, -35, -79, -2, -9, 18, -42, 31, 49, -25, 9, -62, -71, -28, -47, -67, -27, -41, 4, -57, -20, -18, -53, 57, 68, -61, -43, 33, 61, -44, 25, 50, -55, -82, 79, -79, -23, -45, 45, 18, 54, 56, -62, -16, -30, -42, -63, -43, -9, 72, 23, -54, 23, -5, 25, 0, -49, -10, 66, -33, -64, -41, 25, 11, -39, -73, 1, 45, -63, 23, 70, 85, -39, -44, -6, 29, 24, -44, 50, -56, 30, 4, -66, -9, -15, 30, 46, -36, 
  -52, 5, -51, -34, -42, 76, -15, -47, 38, 42, 15, 26, -64, -4, -10, 48, 34, -10, -24, -37, -16, 77, 70, -41, 81, -49, -39, -69, 68, 59, 31, -8, 56, -35, 78, 23, 62, -45, -42, -61, 7, 64, 37, 42, 65, 38, -12, 73, -52, 49, 15, -4, -49, 31, -12, -27, -36, 37, 39, -53, -6, 33, -44, 39, -38, -38, 7, 58, 41, 8, 66, 57, 53, 54, 25, 22, 70, -13, -65, 70, 35, -65, 8, 30, -15, 27, 70, -72, 92, -43, -78, -30, 7, -16, 25, -47, -76, -82, 84, -67, 3, -19, 36, 58, -69, -39, -14, -84, -36, 48, 62, 58, 63, -2, -57, 2, -58, -42, 55, 39, 10, 5, 42, -24, 64, 19, 10, -48, 2, -51, 27, -24, -57, 43, 73, 77, 35, -63, 2, 29, 27, -30, -64, -56, -71, -22, -63, -21, -66, -54, 49, 1, 53, -41, 60, 16, 14, -24, -39, 33, -78, -87, 72, -72, -8, -5, 40, 58, 78, -29, 52, -3, -63, -55, -68, -2, -60, 
  20, -4, 17, 47, -76, -78, -6, 43, -27, -73, 74, 49, 55, -46, -24, -61, -7, -6, -50, 15, 5, 52, -4, -12, -12, 59, -78, 35, 26, -77, -49, -48, -39, 61, 19, -30, 50, 44, 48, 34, 0, 13, -57, 45, -5, 60, 0, 33, -4, -58, -61, -3, 30, 61, 38, -79, 75, -34, -22, 95, 70, 14, 59, -55, -42, 93, 25, -15, 87, -3, -56, 14, -48, 40, 65, -46, 10, 32, -47, -21, -51, 54, 19, -21, 43, -31, -21, 29, -21, 62, 7, 55, -27, 74, -13, -88, -57, -18, -83, 12, 42, 26, -62, 34, 14, 24, 2, 1, 45, 10, -17, -69, -2, 32, -14, 0, 13, 71, -29, -5, 6, 30, 2, -61, 28, 22, -47, 63, 28, -56, 11, 84, -54, 87, 30, -54, 36, 32, 62, -27, 43, 56, 11, 78, -60, -42, -41, -39, -32, -31, -45, -13, 17, -4, 10, 5, 81, 74, 19, 59, 67, -63, -39, -36, -12, 63, 61, -31, 31, -1, 27, -35, -23, -82, -23, -86, -83, 
  -72, -60, 53, -64, 51, 52, -27, -55, 38, 45, 24, 34, -43, 15, 40, -24, -46, 51, -65, 72, -65, -69, 68, -69, -12, 78, -39, -8, -67, 17, 6, -7, -26, 29, 33, -62, -51, -15, -57, -72, 13, 20, 62, -25, -72, -8, -58, -46, -31, -40, 48, 7, 0, 10, 50, 2, -41, 83, 11, 35, 22, 12, -23, -48, 19, 11, -23, -38, -13, -72, 13, -22, 64, -9, -55, 58, 15, -62, 62, 33, 37, -21, 70, -43, -63, 22, -2, -51, 51, 45, 60, -4, 37, 3, 65, -55, -7, 46, -1, -67, -31, 32, -6, 30, -67, 32, -5, -72, 52, 22, -18, -57, -4, -75, -49, -55, -78, -28, 17, 11, -16, -76, -71, -19, 60, -21, -22, -70, 76, 19, 32, -44, 74, 23, -15, -62, 13, 37, -65, -45, -36, 70, -5, -46, -72, -16, -52, 12, 19, -21, -53, -37, -37, 13, -66, -56, 21, 40, 33, 66, 8, -38, 66, -35, 48, 69, 23, 34, 47, -32, 2, 31, 12, 33, -23, 12, 44, 
  -20, 71, -3, -40, -25, -76, 64, 43, 8, -12, -57, 25, -45, 5, -40, 77, -42, 7, 53, -15, 7, -72, -90, -33, -79, 75, 21, 49, 25, 85, 64, -20, -19, -57, -16, 84, -2, -38, 46, -24, -87, 88, -51, 28, 11, -73, 41, 82, 25, -73, 35, -34, -67, 80, -17, 9, -41, -41, 34, -47, 62, 38, 51, -57, 40, -71, -12, -25, 3, -72, 3, -8, 77, -22, 19, 37, 79, -17, -61, -53, 51, 12, 49, -37, -32, 51, -17, 73, -65, 17, -39, -25, 48, 66, 31, -65, -21, -71, -28, -19, 99, -2, -75, 60, -28, -46, 7, 80, 72, 97, -19, -26, 72, -64, 57, -17, -26, -31, 77, -33, 33, 28, 88, -26, 66, 6, -31, 58, 82, 76, -60, 70, -57, -49, -57, -31, 10, 42, 2, -28, 0, 35, 29, -71, 69, -58, 49, -62, -51, -74, 46, -32, 20, 42, 21, 10, 11, -29, 40, 7, -71, -72, -70, -58, -21, 27, -68, -57, 36, 33, 62, -39, -87, -3, -4, 9, 25, 
  46, -21, 71, -64, 53, 11, -39, 66, -58, -72, -42, -44, -10, -15, -72, -48, 85, -22, -59, 80, 60, -37, -50, -39, -58, 79, 43, 36, -6, -47, 10, -72, 77, -30, 23, 71, -41, -2, -37, 28, 41, -40, 62, -54, -41, -63, 61, 5, 81, 59, 1, 18, 0, -20, 64, -43, -1, 6, -24, 54, -19, -19, 26, 15, -58, -73, -13, -31, 60, -47, 18, -19, -74, 10, -7, 45, 77, 46, 43, 82, 42, 79, 9, -70, -22, 48, -11, 80, 31, 77, 14, -43, 13, 60, -13, -56, -38, 16, 5, 34, -42, 9, 34, -61, 56, 25, 27, -20, -29, -12, 6, -78, -59, 57, 8, -52, 49, 31, -7, 36, 64, -65, 1, 19, 68, -79, -49, -42, -83, -72, -21, -14, 9, -11, 48, -10, -53, -61, -43, 35, 56, 83, 11, -79, 63, 3, 33, 16, -36, -23, 7, 20, 51, 49, -64, -5, -28, -71, -16, 27, -34, 56, 42, 77, -61, -18, 56, -57, 23, 69, -12, 20, 67, -73, -24, -15, 68, 
  -44, 22, -63, 25, 83, -70, 72, -63, -19, 36, -14, -17, -17, 23, -75, 75, -4, -18, -45, -25, -65, -56, -41, -19, 61, 80, -24, -62, 65, 48, -78, -42, 62, -26, -11, 19, -23, -5, 41, 9, -62, 19, 64, 49, -44, -48, 6, -9, -44, 38, 9, -67, 21, 36, 19, 48, 68, -32, -69, -13, 26, 57, -11, -4, 32, 55, 43, -79, -67, -60, -57, -74, -28, -40, -10, -33, -38, -59, -36, -64, 11, 46, -15, -69, -57, -25, -48, 43, 5, 47, -74, 54, -34, 22, 6, 57, -47, -56, -55, 21, -56, -11, -63, -39, -4, -10, -56, 33, -5, 33, -42, 62, -51, 51, 6, 79, -64, 28, -48, 37, -40, 14, -25, 44, 33, -65, -66, 39, -9, 65, 47, 82, 70, 1, 53, -25, 74, -55, 61, -54, 36, 79, -8, -66, -40, -68, 55, -54, 62, 24, 4, 22, -35, 5, 21, 72, 51, -67, -16, 20, -1, -47, 75, -18, 57, 2, -66, 58, 39, 35, -46, 61, 5, -7, -75, -42, -49, 
  75, -34, -12, -47, -53, 10, 23, 11, -27, -19, 27, 18, -26, -9, -67, -17, -9, 81, 79, -31, -14, 70, -12, 83, 64, 5, 6, 43, -40, -55, -49, -67, 2, -27, -39, 46, -34, 8, 23, -26, 6, 63, -6, 2, -64, 34, -2, -35, 50, 58, 36, 7, 28, 30, -12, 19, 74, 40, -32, 55, -40, 17, 37, 3, -1, -9, -64, 20, 42, 29, 60, 45, -49, -51, -69, 2, 14, 56, -60, -75, 57, -29, -65, 44, 25, -31, -57, -74, 64, 6, -56, -34, -9, -71, 73, -47, 42, -79, 76, 66, 32, 60, 79, 44, 76, 47, -13, 51, 21, -36, -2, 32, 32, -15, -36, -64, 71, -71, -60, 5, -1, 1, -57, 34, -58, 39, 40, -66, -49, 10, 5, -30, 3, -78, 47, 50, -24, -9, 37, -28, 67, -15, -67, -32, 63, 0, 4, -46, 30, 76, -63, -44, 16, 71, 71, -70, -63, 56, 10, 0, 20, 25, -47, -23, 23, 10, -81, 63, -70, -48, 27, -9, -70, -73, 7, -43, 79, 
  73, 23, 36, 32, 50, 47, -24, 49, -3, 52, -15, 50, -4, 41, 16, -59, -5, -2, 10, -69, 23, 36, -37, 58, 52, -15, -48, 22, -48, 7, -52, 29, 1, -55, -3, 80, 11, 24, -12, 26, -25, -47, 67, -79, 74, 74, -33, 56, -27, 35, 38, -83, 13, 81, -28, -35, 15, -17, 0, 40, -56, -41, 46, 17, -50, 23, 15, -17, -55, -15, -4, 27, -28, -49, -62, 20, -54, 77, -56, -34, -49, 62, -78, -1, 67, 15, -57, 20, 39, 70, 76, 4, 79, 55, 35, 77, 12, 2, -52, -41, -14, 25, 6, 40, 72, -32, -27, 22, 6, -10, 18, -39, -81, 4, 19, -73, -61, 74, 62, 71, -29, 64, 55, -57, -35, 62, -2, -24, 60, -82, 41, -69, 54, -65, -13, -38, 69, 7, -41, -49, 81, -12, 19, -52, 21, -76, 65, 41, -82, -14, -37, 28, 33, -43, 61, 50, -15, -41, -14, 26, 31, 55, -16, 2, 8, -42, -26, 66, 2, 46, 9, 14, 57, 70, 14, -58, 12, 
  36, -22, -17, -72, -50, 43, -4, 50, -13, 51, -18, 25, -6, -63, -6, 18, -43, -40, -8, 22, 37, 19, 17, -29, 42, -77, -80, 71, 68, -41, 22, -64, -33, -32, 55, 50, -63, 24, 31, 25, -55, -19, -7, -45, 39, 7, -1, 75, -2, 56, 42, -6, -21, -27, 72, -8, 20, 14, 56, 77, 64, 36, 2, -69, -62, 49, -34, -58, 7, 50, 69, 63, 7, 27, 74, -62, -27, -25, 48, -13, 2, -26, 36, -65, -24, 22, 18, -27, 12, -66, 28, -11, -8, 5, 23, 64, -37, 62, 4, -68, 47, -22, -22, -36, -1, 38, -61, 24, 35, -50, 20, 65, -73, 76, 57, 24, -33, 83, -20, 9, 53, -32, -46, 45, 67, -26, 18, -25, 72, 22, 52, 2, 15, -74, -32, 71, -46, 39, -26, -4, 69, -44, 16, 16, -44, 20, -44, -63, 33, -12, 6, 36, 11, 27, 75, 67, 81, 9, 75, -58, -70, -13, -59, 31, 75, 46, -33, -42, 75, -71, -66, 51, 12, 22, -17, -54, 8, 
  18, -51, -39, 48, -21, -74, 73, 76, 2, 77, -43, 36, -37, -35, -35, 48, -37, -66, -6, -47, 81, 70, 29, 13, 23, -80, -38, -73, -61, 14, 6, -4, -28, 47, -84, -5, -2, 66, -15, -77, 46, -2, -17, -15, 50, -16, -77, 78, 6, 6, 15, 43, -20, 71, 42, -12, -45, 30, -19, -52, -75, -77, -69, 16, -37, -33, 47, 14, 66, -24, -30, 34, 26, 40, -49, 3, -7, 36, 8, -34, -9, 79, -50, 80, 7, 39, -16, -70, 31, -66, -68, 55, 23, 81, -7, -37, 41, 60, 76, -51, 72, -66, 38, 42, -63, -60, 56, 58, -2, 23, 79, 26, 1, 9, 56, -9, -1, 57, 82, -27, -33, 73, 53, -15, 21, 66, 62, -4, 13, 22, -52, 2, -35, 32, -68, 33, 40, -71, 13, -1, 57, -40, -56, -4, -73, 61, -74, -33, -73, 32, -30, -40, 86, 0, 28, -40, 72, 7, -13, -36, -28, 81, 8, -25, 24, -49, -27, 18, 6, 7, -44, -54, -9, -45, -20, -34, 9, 
  -61, -16, -60, 14, 82, -67, 32, -39, 51, 53, -42, -80, -18, -8, 68, 59, 57, 49, -56, -57, -74, -54, -70, -78, -8, 45, -58, 57, -67, 55, 44, 56, -34, 13, 69, -35, 21, 54, -61, 70, 33, -50, -45, 1, 17, -28, -10, -6, 40, 26, -53, 42, 49, -15, -70, 25, -28, -22, 87, 8, -18, 68, -27, -45, -12, -51, 38, 19, -2, 9, -4, -31, -10, 37, -38, 20, 37, 16, 71, -10, -55, 35, 55, -32, -45, 7, -20, 74, -2, -66, 1, 50, 69, -24, -11, -68, -68, 14, -63, -25, -66, -8, -16, -19, 41, 72, -59, -20, 66, -37, 29, 8, 66, 47, -44, -43, -26, 30, -46, 31, 9, 50, 13, 18, -42, 66, -44, -7, -15, -31, -77, -63, 52, 58, -53, -34, -40, -18, -47, -29, 37, 68, 60, 21, 8, -7, 50, -7, -25, 5, 14, -6, -65, 28, 1, -9, -61, 36, -39, -50, -35, 35, -78, 9, 6, -75, 21, -49, -59, -8, -58, 30, 60, -24, 49, -28, 17, 
  43, -29, -37, 67, 73, 69, 63, -59, -31, 51, -19, 70, -26, 28, 38, 66, 65, 75, 7, 8, -52, -3, -71, 18, -28, 32, -74, 26, 49, 15, -51, 9, -12, 59, 72, -43, 43, 60, -31, 1, 54, 55, -12, 51, 67, 74, -32, 56, 5, -18, 56, 76, 68, -47, -78, -44, -79, -15, 11, -30, -77, 39, -17, 78, 63, 21, -74, -17, -22, -10, -77, -58, 8, 27, -2, -54, -19, 64, -30, -49, 70, -72, 40, -37, 1, -24, 42, 10, 39, -27, -64, -11, -26, -33, 40, 28, 15, 66, 1, 24, 36, 37, -50, 8, -57, 18, -75, -24, -11, 23, 65, -71, -51, -19, 76, -68, -20, 11, 2, 37, 77, 38, 66, 27, -74, -35, -4, -70, 12, 16, -45, 6, -52, 51, 74, -55, -39, -69, -31, -70, 63, 60, -45, -47, 65, 71, -61, 58, 44, -56, 10, -48, 71, 46, 37, -31, 61, -50, 58, -78, 62, -15, -46, -12, 54, -44, -59, -51, 18, -63, -61, -43, 10, -11, 44, 54, 43, 
  55, -2, -28, -26, -36, 61, 55, 22, 77, -10, -59, 66, 38, 62, 50, -21, 15, -41, 34, 16, -76, 43, -72, -70, 76, 15, 59, 72, -15, -30, 60, -34, -34, -11, 37, 42, 9, -32, 26, -19, 0, 39, -59, 22, 66, 57, -66, 67, -28, -61, 32, -43, 73, 20, -24, -27, -32, -32, -28, 22, -75, -18, -77, -20, -34, -41, -36, -30, 7, -49, -29, -12, -35, -29, 2, -39, -77, 62, 18, 45, -31, -9, 67, -36, -38, 20, -27, -63, -57, -39, -56, 57, -29, 27, -50, -20, 5, -58, -8, 48, 18, -52, -39, -23, 55, 36, 24, 59, -15, 74, -11, -60, -72, -52, -6, -67, 22, 60, -38, 65, 38, -20, -69, 56, 71, -21, 31, 70, 16, -68, 36, -68, 74, -17, 49, -14, 54, -5, 71, 71, 80, -28, -16, 3, 82, 57, -31, -29, -39, 60, 63, 41, 36, -37, 17, -28, -62, 46, -7, 13, -56, 44, -5, 18, 41, 19, -9, 65, 43, 29, -56, 14, 65, 32, 53, 68, 58, 
  18, 41, 3, -22, 15, 60, 43, 73, 19, 17, -12, 63, -41, 51, 87, -3, 11, 30, 39, 93, -42, 24, 85, -21, -45, 1, -9, -76, -55, -3, 20, 50, -50, 34, 40, -34, -39, 57, 45, 9, -65, 28, 12, 3, 64, -54, -58, 67, 1, -49, 3, -6, -38, -39, 61, 16, -38, 72, -48, 63, 28, -22, -67, -47, -78, -11, -8, 54, 17, 3, 14, -37, 42, -19, 29, -80, -29, -8, -74, 62, 29, -25, 34, -24, -67, 25, -40, -53, 70, 57, -58, 82, -55, 20, 38, 80, 17, -67, 10, 32, 19, -38, 42, -91, 7, -73, -78, 0, 38, 53, -41, 78, -11, 72, -3, 17, -12, 53, -46, -73, -66, 39, 28, 38, 69, -65, -28, 26, 3, -14, -54, -50, -47, 2, 67, -19, 5, -37, 66, -57, 60, -72, -26, -36, 31, -26, -31, -9, -10, 11, 13, -20, 40, 34, -10, -42, -22, 20, 17, 15, 28, 17, -79, 41, -22, 33, 30, 21, -54, -4, -66, 53, 106, -9, -54, -49, 57, 
  -76, -35, 68, 2, 1, -40, -9, 40, 43, -17, -77, 71, -42, 65, 41, -51, 53, 53, -25, -67, -66, 57, -41, 10, -65, -47, -11, -32, 19, 15, -10, -21, 76, -12, 50, 50, 64, 4, -66, -16, -60, -41, -24, -56, 40, 28, -18, -34, 76, -57, 52, -54, 11, 28, -59, 11, -25, -46, -9, 64, 0, -33, 57, 6, -17, -20, 30, -79, -28, 1, -73, -61, -54, 46, 61, 19, 39, -28, 31, 20, 59, 6, -13, 7, -24, -68, -7, 1, -4, -2, -63, 45, 32, -55, 55, 40, -8, -70, 27, -77, -40, 75, 17, 35, -66, 57, -57, 7, 49, -40, 24, -3, 40, 1, -69, 5, -18, -66, 64, -36, 11, 29, 14, 0, 69, -14, -43, 19, 79, 47, 20, 2, -46, 10, 37, 81, 52, 80, 79, 28, -58, 61, -50, 43, 67, -58, 18, 69, 29, 58, -54, 76, 21, 75, 36, 9, 0, 19, 10, 47, -68, 58, 43, 37, 79, -66, -68, 51, 4, -18, -68, -28, -67, 47, 7, -62, -35, 
  76, -6, -58, -58, -42, 66, -11, 26, -45, 78, 66, 23, 4, 46, -54, 24, -69, -53, 3, -4, -58, 20, 48, 53, -32, -38, -8, -71, -22, -66, 44, 43, 10, -24, 91, -35, -68, 69, 21, 30, -10, 44, 64, -39, 69, 67, 68, -11, -22, 73, 79, 22, 19, -39, -16, 54, -56, -75, -1, 38, -31, -76, -52, -48, 26, -78, 74, -17, -51, -71, -65, -73, -28, 4, 14, -74, 12, 54, 31, 77, -26, 65, -1, 68, 30, 50, 45, 31, 34, -38, -9, -10, 2, 19, 54, 16, 35, 69, 66, -62, 7, 74, -69, 103, -69, 63, 33, 62, 27, -25, 4, 75, -45, 44, 20, -78, -48, 20, 26, 52, -56, 46, 70, -28, 78, 51, 61, -38, -12, 25, -39, 43, 10, 38, 34, -58, 64, -65, -4, 27, 65, -70, 86, 22, -26, -56, -5, -27, -60, 23, 9, 41, -70, 54, 25, 3, 52, -62, 29, -17, -64, 8, -34, -25, 59, -57, 18, -5, -7, 30, 60, -67, -10, -3, -42, 3, -44, 
  65, 56, 79, -7, 65, -19, 40, -24, 18, 36, -34, 55, 23, 57, 45, -26, -37, 50, 10, 63, 69, -63, -72, 16, -45, 13, -32, 14, -70, 59, -21, -1, -59, 12, 18, -41, 5, -33, 5, 33, 39, 3, 29, -33, -26, 16, 43, 2, 74, 38, -16, -51, -5, -54, -7, -78, 36, 48, -73, 8, 8, 56, -14, 63, -13, 85, -71, 30, -57, 80, -22, -24, -66, 82, -13, -74, -35, -14, -17, 55, -25, -73, 52, -50, 55, -30, -17, 45, 14, -14, 26, 45, 78, -62, -31, 14, 44, 64, 50, 6, -8, 7, -72, 35, -41, -57, -32, -44, 56, 63, -66, 46, -16, -33, -71, 10, -72, -3, -23, 67, 30, -14, 47, -39, -82, 69, -74, -34, 30, -64, 31, 45, 48, 38, 33, 42, 11, -29, 32, -4, -20, -67, 25, -75, -36, 11, 24, 15, -56, -4, 58, 15, 39, 73, 24, -29, 19, 5, -46, -16, 2, -65, -75, -69, -64, -3, 36, 39, -55, -51, -55, -79, -60, -24, 32, 0, -57, 
  6, -40, -34, 59, -60, 65, 23, 41, -44, -26, 58, -44, 2, -45, -78, -69, 33, -62, -23, 75, 29, -5, -3, 58, 44, 50, -64, 50, -60, 43, -64, 11, -75, 4, -66, -11, 65, -8, 24, 41, -47, -25, -40, 43, -4, -59, 21, -16, -76, 69, -71, 42, -49, -52, -29, -15, 0, -17, 47, 61, 37, -60, 51, -64, -72, -57, 43, 17, 22, 43, 10, 56, -34, -10, 22, -18, 74, -78, 69, -6, 72, -54, 69, -17, -48, 0, 77, 17, 51, 57, 57, 69, 33, -7, 5, -29, -76, 24, 41, -51, -2, -50, 30, 60, 29, 36, -61, -29, -74, 64, 20, 78, 72, -42, 72, -15, -1, 48, -2, 61, 13, 13, -42, -9, -66, -74, 23, 7, 54, 69, -72, -47, 76, -6, -51, 40, 44, -16, -3, 70, 28, 0, 5, 74, 74, -36, 56, 78, -38, 64, 53, 15, -11, -4, -64, 68, 48, -61, 40, -2, -55, 16, -21, 37, 10, -62, -41, -56, 30, 47, -34, -51, -77, 64, 9, -3, -79, 
  -15, -38, -33, -19, 42, 24, 52, 0, -70, 10, 19, -21, 58, -42, -60, 59, 32, -52, -11, -27, 55, -5, -33, 46, -62, -37, 17, 62, -47, 45, 48, -17, -55, -6, 61, -71, 10, 21, -79, 32, 4, -23, -64, 88, -1, 2, 13, -64, 16, -35, 27, 42, 2, -75, -71, 55, -45, 34, -5, 17, 58, -43, -33, -19, -21, -70, -73, 7, 65, 60, 12, 45, 11, 31, 16, -25, 34, -63, 28, 32, 21, -75, 15, 47, -71, -61, -82, -61, 62, 11, -64, -46, -80, 10, 31, 48, -15, -72, 29, 62, -29, -6, -80, -45, -75, 35, -9, 46, 57, 40, -9, -48, 31, 22, 74, -30, -44, -13, 80, 41, -68, 69, 54, -75, 29, -3, 6, -41, -80, -14, 10, -4, 65, 50, -65, 39, 32, 3, 60, -12, 37, 37, 29, -68, 61, 58, -30, 51, -28, 27, -65, -29, -57, -6, 30, 60, 41, 10, 29, 17, -59, -50, -51, 48, 50, 71, 17, 5, 1, -30, -67, 42, 52, 35, -57, -12, 7, 
  42, 48, -18, 70, -59, 29, 23, 38, 53, -7, 19, -23, 26, -28, 24, -61, -82, 18, 37, 52, 44, -41, -13, 12, 14, -22, 8, 39, 8, -23, -57, -42, 19, -7, -25, 69, -65, 48, -15, -50, -29, 38, 70, 65, -18, 48, 74, 35, -59, 7, -10, -33, 52, 27, -50, -12, -68, -50, 34, 80, 9, -40, 78, 83, -69, 56, -25, 3, -12, 49, -60, -12, -54, 46, -32, -61, -20, 74, 72, 72, -67, 26, 16, -56, -50, 41, 45, 45, 21, 51, -7, -66, -65, -49, 53, 66, -3, 47, -8, 35, 27, 68, -52, -55, -54, -36, 40, 11, -36, -58, 16, 7, -24, -16, 2, -43, 78, 2, -35, -32, 29, 37, 2, 64, 72, 11, -10, 77, 37, -44, 14, 38, -36, -5, -51, -49, 48, 16, 6, 53, 72, 12, 11, 12, 34, 7, 11, 31, 36, 69, -46, -27, -68, -33, 31, 55, 69, 74, -44, -71, 60, 78, -31, 71, 82, 82, 35, -42, 8, 65, 2, -17, -66, -73, 31, 21, 57, 
  -41, -63, -79, -40, -2, -18, 9, -42, 16, 43, -8, -67, 62, -1, -58, 59, -19, 33, -13, 18, 45, -24, 21, 19, 48, 14, 53, 56, 6, 47, 76, -77, -43, 13, 16, 44, 5, -53, -5, 2, 76, -53, -3, 10, -60, 18, -57, 38, -56, 90, 26, -46, -5, 61, -66, -24, 89, 78, -5, -50, 32, -49, -21, -65, 38, 22, -41, -101, -24, -68, -47, -22, -40, -69, 86, -60, -20, 12, -14, -66, -67, 66, -45, -50, 69, 38, -82, -24, 73, -55, -75, 35, -55, 52, -44, -18, -44, -48, -64, -44, 15, -9, 13, 8, 64, 58, -43, -29, -68, -66, 54, 8, 88, -66, 50, 22, 16, 67, 43, 85, -26, 77, 81, 2, 51, 44, -77, 66, -32, 7, 78, 11, -4, 15, -51, 37, 52, -72, 15, 5, 59, -66, -13, 79, -54, 34, -31, 14, 70, -18, 75, 20, 31, 72, -9, 47, 39, 7, 53, -12, 13, 62, -44, -20, -24, -11, -14, -45, 30, -75, 6, 79, -31, -2, 2, 8, -31, 
  4, -70, -27, 57, 61, 28, 61, -54, -11, -43, 4, 71, -73, -58, 43, -1, 5, -75, -26, 15, 33, 76, 26, -17, -53, -65, -27, 58, 25, 76, -34, -26, -61, -33, 72, 67, 29, 77, -32, -32, -77, 55, -63, -34, 28, -39, 9, 54, 22, 43, -52, -55, -62, 66, 48, 60, 39, -15, 2, -59, -72, -72, -12, 23, 75, -80, -27, 71, 64, 32, -37, 32, 11, -79, 58, -72, 10, 6, 80, -60, -26, 12, 23, 60, 11, 38, 71, -53, -26, -68, -25, 9, 3, -17, 46, 1, -67, 17, 59, 50, 27, -49, 58, -52, 33, 66, 53, 24, 4, 69, 66, -42, 66, 5, 17, -38, -4, 49, 77, -26, -41, 71, -18, -41, -13, -3, 13, 31, 17, 6, 43, 63, -6, 2, -19, 27, -52, 20, 55, -36, 63, 72, 58, 20, 44, 33, 73, -1, 58, -83, -29, -72, -57, -30, 43, 55, 78, -66, 50, 33, -53, 64, -63, 29, -1, -10, 44, -62, 19, -68, 48, 65, -55, 13, -43, -53, -42, 
  -62, -62, -7, -9, 4, -26, 10, 53, 36, -16, -74, 36, -4, 44, -30, 62, 66, 34, -60, -34, 79, 63, -67, -11, 28, 70, 39, -25, -51, 33, -4, -63, -16, -15, 31, -63, -67, -16, -72, 74, 37, 13, 63, -45, -52, 24, 75, 50, 17, -41, 31, -39, 28, -50, 70, 75, -76, -50, -11, 47, 71, 20, -78, 58, 64, -31, 33, 50, 58, 17, 7, -49, -25, 53, 29, 49, -59, 4, -11, -56, -9, 27, -44, 3, -3, 78, -75, -46, -48, -47, -34, 54, -12, 53, -38, -23, 68, 2, 31, -5, 45, 0, 37, -57, -3, 7, -27, 25, 48, -56, 19, 22, -32, -75, -46, -13, 30, -7, 10, -74, 4, 13, -31, 9, 37, -76, -43, 32, 13, 64, -33, -8, 46, 78, -39, -50, 34, 32, 32, -44, 32, -5, 49, -28, 43, 29, 21, 54, 42, 64, 64, -29, -2, -70, 72, -15, -36, -16, 28, 64, -21, 64, 3, -3, -59, -38, 23, 20, 19, -35, 47, 39, -33, -4, -67, 35, 41, 
  -62, -63, -12, 60, -27, 87, 35, 42, 15, 47, -34, -42, 4, 51, -13, -19, -12, 27, 48, 10, 29, -76, 37, 34, 22, -34, -9, 12, 20, 41, -8, 15, -54, -35, 3, 73, 39, -26, -83, 10, -55, 35, -20, 2, 6, -9, 42, -10, 66, -41, -76, 55, -48, -46, -30, -37, 68, 39, 4, 60, 17, -14, 3, 67, -13, 77, 25, -35, 25, -82, 40, 42, 0, 42, 26, 36, 29, 29, -58, 17, 11, 18, 18, 54, -58, 32, -20, -52, -57, -56, -47, -5, 29, 64, 77, -55, -37, 26, 33, -29, -22, 76, -61, -21, -24, 22, -24, 59, 33, -94, 29, 34, -49, -7, -69, 3, -33, 10, 28, -4, 71, -90, -81, -5, -56, 24, 31, 58, -67, -23, -37, -42, 59, -35, 53, 51, -87, 43, -6, -98, -65, 63, -67, -45, -34, -68, -14, -33, -59, 1, -83, 19, -81, 25, 49, -17, 12, 37, 90, 58, -79, 81, -70, -30, 41, -26, 42, -11, -10, 31, -69, -31, 70, -3, 15, 67, 4, 
  -53, -42, 45, -14, 9, 0, -9, 47, 74, 47, 7, 12, 10, 52, 28, 25, -61, 1, -4, -30, -43, -21, -9, -7, -49, 5, -13, -46, 14, -2, -74, 1, 66, -54, 28, -62, 65, -10, -40, -31, 1, -64, -55, -29, 39, -63, -40, 40, 2, -58, -4, 9, 17, 22, 30, -33, -6, -70, -53, -9, 76, -39, -58, 32, 46, -51, -20, -66, -4, -20, -52, 25, -65, 95, -58, -74, -5, 24, -25, 68, 34, -6, 50, 43, -31, -20, -24, -46, 47, -65, -42, 54, 34, 50, -36, 46, 37, -27, -21, 34, -19, 33, 29, -46, -78, 65, 0, 39, -22, 84, 48, 7, 34, 20, -73, 2, -7, 9, 70, 55, 68, -13, -21, 19, 65, -30, 22, 20, 32, -75, -72, -31, 19, -35, -37, -19, 77, 17, -4, 50, -5, -20, -57, -71, 29, -63, 79, 39, -6, -37, 0, -6, -12, -15, 51, 23, -2, -10, 71, 28, 29, -57, -29, -9, -12, 66, 23, -12, 63, -30, -22, -62, -41, -78, -60, 2, 4, 
  -12, 27, -38, -9, -23, -59, -45, -88, 60, 10, -17, -73, -41, -20, 58, -62, 55, 51, -56, -2, -50, -47, -59, -3, 14, -67, 7, -29, 11, -44, 75, 54, 53, 52, 86, -76, -20, 57, 20, 71, 61, 52, -47, 100, -38, -73, 59, 8, 23, -55, -34, 20, -75, 83, 71, -65, 71, -63, 22, -46, -1, 8, 19, -17, 14, -74, -77, 44, -12, -4, -41, 50, 77, -74, 34, -4, 51, -72, -56, -58, 59, -33, -36, -19, 3, -4, 19, -4, 79, 74, 18, -24, 81, 23, -81, 2, 8, 48, 2, 8, -28, 7, -1, 42, 35, 37, -68, 49, 69, -48, 66, 57, -9, 79, 6, 82, 66, 9, -5, 72, -10, -59, 23, 40, 56, -52, -76, 29, 20, 22, -33, 23, 53, -33, -57, -1, -22, 77, 38, -21, 27, 65, -36, -72, -25, -82, 65, -59, -19, -15, -39, -42, 18, 25, 58, 49, 55, -28, 59, -16, 22, -33, 4, 50, -66, -51, -40, -34, -2, 58, -58, 66, -24, -18, -42, 78, 68, 
  -12, 6, 40, 65, -68, -16, 1, 61, -71, -6, -9, -47, 73, 60, -75, -82, -58, -12, 70, 82, 64, 72, 12, 19, 67, 24, -39, 49, -26, 43, 72, -76, -46, 39, -75, 60, 12, -16, 65, 9, -51, -50, 17, -19, 34, -78, 51, 49, 17, 53, 26, -13, -56, 0, -63, 9, -80, -45, 81, 39, -16, -97, 2, 75, -21, -73, 3, -13, 61, -45, -63, -71, 49, -55, 34, -61, 69, 56, 64, 20, -43, 0, 43, 82, 74, -54, -37, -53, -37, -63, 25, 5, -55, 66, -49, 54, 43, 17, -3, 77, 22, 22, 59, 61, 32, -35, -68, -15, -2, 5, 51, 41, 56, -12, -36, 29, 47, -32, 16, 45, -43, -36, -22, -37, -37, -2, 17, -54, 18, -28, -34, -43, 29, 43, 17, 38, -77, -68, 43, -20, -74, 79, 58, -56, -42, 13, -50, -48, -94, -14, -40, -19, -62, -5, -2, 70, -62, -93, -27, -31, 54, 12, -38, 2, -42, -25, -49, -42, 10, -47, -62, -73, -34, 65, -37, -4, 70, 
  -57, -1, 14, -6, 54, 14, 49, -36, 18, -68, 32, 36, -46, -72, -66, 9, -66, -23, 47, -34, 17, 40, 75, -26, -65, 25, -75, -43, -63, -53, 0, 61, -74, -1, -24, -28, 26, 13, -77, -50, -45, 44, -29, -61, -25, -44, 19, -48, 67, -44, -46, 38, 27, 33, 18, 8, 25, 56, 56, 27, -46, -13, -27, -21, 38, -29, -73, 65, 73, 49, 28, 38, -52, -41, 50, 51, 17, 37, -48, -48, 73, -24, 43, 38, 27, 67, 6, 11, 50, -5, -12, 41, 72, -14, 59, -61, -65, 57, 39, 49, -75, 47, 67, 29, 47, 31, 64, -31, -63, -36, -70, -58, -43, 67, 58, 71, 46, -37, -61, -67, 32, -18, -15, 41, 68, 30, -80, -61, -10, 61, 0, -62, 71, 58, -74, -26, 23, -49, 16, 30, 12, 4, -17, -73, -40, 24, -76, 76, 57, -31, -8, 82, -65, -61, -29, -4, 12, -13, 47, 39, 13, 18, -18, -43, 47, -13, 46, 13, 56, 50, -77, 65, 4, 1, -63, 12, -71, 
  28, -34, -67, 52, -69, 30, -27, -68, 32, -51, 60, -22, 15, -17, 21, -43, 69, -80, 35, -62, -28, 71, 10, 10, 24, 14, -50, -42, 48, 15, 57, 65, -1, 61, 51, -41, -62, -18, -74, -2, -45, 0, 43, 48, 6, 28, -11, -25, 51, -10, 22, 11, -1, -47, 46, -52, -18, 67, 52, -14, 19, 68, 56, 29, -53, 10, -80, 59, -60, 23, 74, -39, -22, 17, -15, 34, 1, -31, 65, 17, 47, 49, -61, 32, -18, 52, 62, 23, -59, -4, -18, 24, 42, 31, -5, 61, -59, 38, -5, -29, 61, -1, 9, -37, -53, 26, 7, -48, 36, -69, 60, 70, 73, -24, -63, -73, -71, 72, -53, -20, -75, 68, -38, 35, -36, 48, 45, 15, -71, 32, 28, -31, -9, 46, 48, 28, 80, 20, 37, -6, 66, 53, 51, 38, 77, -21, 64, 35, -73, 0, -13, -17, -13, 29, 73, 55, -8, 8, -71, 69, -1, 21, -29, -42, -2, -13, -36, 36, -2, -52, -54, -57, -41, -79, 43, -33, 47, 
  12, 71, 59, -71, 20, -54, 21, -18, 75, -30, -39, -53, -66, 28, -16, -19, 31, 16, -72, 44, 24, -33, -27, -63, -55, 47, -61, 26, -74, -34, 17, -44, -56, 40, 3, -39, 6, 55, 72, 35, 1, 36, -62, 20, 72, 15, 64, 21, 63, 42, 14, 14, -66, -9, -18, 38, -9, -37, -55, 64, 20, 17, 40, 12, -48, -34, -27, -55, -11, -28, -16, 50, 47, -51, -23, 23, 74, -51, 8, 67, -7, -40, 37, 4, 43, 74, 64, 27, 24, 29, 44, 51, -62, 26, 42, -26, 4, 52, -33, -7, -27, 55, 38, 81, 73, 30, -55, 54, 20, -11, -40, -21, 20, -65, -2, -35, 4, 34, -79, 74, -47, -4, -35, -10, -13, 0, -43, 33, 31, 76, 68, 13, 48, -88, -49, -70, -71, -32, -71, 2, -61, 67, -14, 74, 21, 57, 71, 7, 35, 27, 8, -6, -20, 28, 13, -57, 71, -55, 21, 0, -33, 5, -38, 17, 58, -62, -40, -1, 53, -54, -20, -55, -56, -49, -46, 35, 70, 
  -75, 32, 70, 13, 7, 17, -10, -59, 9, 52, 14, 13, 34, 72, 79, -60, 10, -69, 62, -9, 35, -47, -19, 77, 67, 49, 65, 79, 36, -54, -31, 9, 50, 44, 31, -47, 20, 73, 42, 58, -57, 42, -15, -33, 13, -55, -77, 16, 43, 16, 42, 66, 52, 68, 19, 29, 31, 59, -10, 70, -3, -57, 30, 16, -34, -4, -58, -10, -41, 21, -5, 16, 57, 58, 52, 47, -52, -4, 21, -36, -47, -42, -7, -46, -17, -60, 5, 6, 76, -13, -68, -42, -33, -33, -43, 74, -14, -47, -41, 55, 12, 41, -12, -3, 42, 49, -36, 47, -75, -9, 29, -59, 65, 65, -30, -28, 41, 18, 61, 22, -10, -8, 58, 61, -8, -56, 68, -59, -51, 72, -31, 53, 65, -8, -22, -31, 25, 6, 21, 37, 51, -45, -20, 34, -44, 9, 56, 38, 47, 60, -41, 16, -19, 37, 33, -31, -38, 37, 31, -25, 14, 11, 10, 15, -37, 15, 22, -23, 35, 3, 1, 38, 14, 52, -23, 29, -8, 
  -1, 35, -39, -36, 0, -71, -34, 56, 58, 49, -16, -39, 78, 30, 48, -1, 18, 74, 30, 21, 54, 27, -73, -2, -37, 22, -71, 10, -80, -71, 54, -42, 7, 75, -19, 66, 41, 29, 4, 5, 57, -47, 49, 43, 16, 71, 67, 65, 70, 6, -67, -32, 49, -67, -52, 3, -11, -46, 6, -13, 75, 10, -10, -74, -11, -59, 65, -70, -15, 64, -10, -1, 78, 27, 57, -49, -78, 37, 55, -10, 14, 20, 29, 57, 56, 65, -15, 41, 74, -6, 47, -62, -62, 47, -6, 27, -5, 64, 46, -8, 6, -32, -31, 6, -33, -65, -76, -42, -64, 18, -17, 34, -77, 7, 53, 33, -18, -40, 61, 12, -34, 51, 50, -38, -48, -31, -70, 50, -11, 68, 1, -25, 15, -20, 44, -38, -12, -22, -36, -53, -72, 8, -13, 76, 21, -73, -69, 28, -13, 38, 68, 68, -72, -22, 8, 34, 66, -13, 65, -3, 45, 49, 82, 25, 55, 69, 8, 54, -65, 7, 21, 1, 54, -56, -47, 20, -16, 
  18, -29, -100, 17, 73, -72, 24, -25, 16, -32, -22, -21, 82, 6, 2, 19, -9, -25, 36, -57, -25, -31, -59, 17, -21, 57, 1, 67, 12, 17, -56, -16, -37, 55, -8, 45, -21, -34, -16, 60, -1, 71, -29, 26, 64, -72, 36, 61, 7, -37, -71, -29, -38, 14, 57, -46, 38, 45, -11, 59, -68, 39, -73, -45, -46, -33, 48, -54, 11, 61, -47, -17, -19, -26, -59, 80, -6, -48, -2, 3, -18, 20, -97, 16, -9, -56, -28, 24, -81, 6, 26, -15, -16, 36, -39, -79, 44, 18, -25, 24, -36, 53, -62, 73, 74, 40, 1, 0, 59, -19, 0, -31, -31, 5, 20, -26, 21, 4, -12, -67, -22, -48, -35, 36, -2, -7, -1, 40, -76, -23, -3, 10, 66, 4, 63, -82, -51, 29, 60, 18, 41, 17, -53, 37, -33, -71, -60, -24, -86, 19, 80, 20, 45, -55, -58, 11, 11, -80, -67, 65, -69, -66, -66, -90, -75, 70, -88, -30, 2, 41, -69, 41, -30, -18, 36, 22, -63, 
  -20, 51, -1, -21, 14, 4, 61, 44, -63, 51, 8, -55, 20, 61, 62, -47, 56, 45, -18, 63, -62, -1, 46, 58, 55, 36, -63, 4, -64, -74, -50, -64, -40, -36, -61, 32, -55, -53, -43, 47, 39, -18, -68, 41, -3, -73, 20, 20, -1, -6, -17, 21, -60, 29, -60, -43, -23, 40, 52, -28, 73, -23, -70, 58, 40, -43, -35, -31, 69, -12, 12, -20, 31, -87, -41, 4, -25, 27, 9, -40, -48, 6, -42, -5, 4, -52, -30, 27, -77, -87, -9, 0, -58, -31, 8, 20, 26, 52, -20, 2, 81, -63, 59, 5, 65, 57, -44, 62, 51, -58, 22, -70, -44, -20, 21, 38, 39, 33, 11, 72, 72, 113, -49, 74, 25, 42, -13, -32, -32, 30, 12, -34, -12, -13, 34, 45, -58, -55, 28, -23, 62, 48, 52, -69, 37, 89, -34, -18, 73, 76, 12, -31, -78, 17, -21, -28, 1, -62, -73, 37, 17, 30, 27, -78, -1, -18, -60, -48, 3, 26, -57, 17, -44, -72, 1, 57, -85, 
  81, -18, -11, -9, -34, -37, -39, -48, 5, 6, 65, 67, -42, -15, -37, 34, -14, -38, 29, 18, -25, 43, -25, 30, 69, -30, 17, -67, 42, -76, 22, 41, 52, -54, -13, -4, -72, -63, 9, 63, -37, -2, -34, 34, -44, 24, 58, -54, -35, 14, -77, -13, 68, -34, -2, -1, -20, 60, 55, -31, 32, 53, -35, 1, -52, 22, 72, 16, 61, 63, 58, 20, -61, 76, -56, 33, -49, -65, 40, -24, -13, 10, 32, 74, 56, 89, 30, 71, 39, 59, -69, -55, 15, 51, 35, -20, 68, 17, 38, -67, 5, -50, -49, 19, -8, -32, -53, -75, -69, -57, -1, 7, -37, -71, -29, 22, 21, -13, 28, 14, 72, -65, 25, 12, 72, 73, -51, 79, 9, -41, 29, -61, -15, 14, 2, -23, -56, 56, 63, 15, 13, 17, -39, 38, 53, -17, -22, 11, -63, 17, -67, 32, 80, -38, 31, -48, -66, 55, 59, -78, 8, 14, 7, -54, 39, -10, -54, -42, -62, 33, 63, 0, 52, -70, 66, 85, 16, 
  -22, 27, -41, 52, 55, 8, -53, -62, -75, -45, -39, 51, 79, -49, 24, 26, -27, 55, 10, 50, 26, -16, 56, 65, 25, 1, -3, 34, -62, 57, 38, 44, 63, -23, -33, 24, -70, -46, -23, 44, 70, 81, -22, -17, 44, 34, 18, 44, 28, 74, -1, -70, -5, 6, 0, 40, 16, 75, -31, 56, 0, -37, 60, 36, -29, 14, -39, 20, -20, 34, 87, 14, 78, -2, -41, -44, -62, -12, 44, -29, 2, -24, -12, -6, 32, 1, -51, -40, 95, -52, -69, -31, -62, -62, -55, -64, 69, 67, 4, 20, 28, -33, -39, 45, 2, 20, 46, -38, -35, 86, 19, -65, 80, -55, 68, -47, -47, -10, 66, -3, 19, -53, -30, -34, -48, 69, -36, -67, -39, 35, -5, 21, 4, -16, -31, 45, -68, 50, 63, 28, 79, -9, -24, -24, -24, -19, 37, 72, -32, 37, 12, -29, 79, 0, -19, 29, -72, 26, -19, 21, -47, -52, -70, 11, -23, 0, 61, 16, -59, -62, 69, -65, 33, 0, -56, 15, 29, 
  49, 21, 80, -43, -30, -39, -58, -1, 50, -57, -20, 75, -8, 51, -1, -13, 30, -7, 24, 22, 37, -77, -20, 40, 40, -22, -6, 66, -49, 54, -73, -49, -3, 51, 2, 77, -35, -99, -23, 58, 2, -10, 10, 31, -67, 56, -51, 3, 49, -45, 29, -34, -50, -48, -61, 68, -72, -40, -14, 29, 24, 50, -12, 12, 44, -4, -67, 53, 51, -15, 36, 15, 66, 44, -29, 43, 12, 51, 36, 35, 36, 36, 89, -8, -64, 13, 54, 3, 62, 38, 65, 28, 64, 8, 70, 91, 5, 17, 44, -35, 87, 47, -27, -47, 23, -31, -15, 17, -49, -46, 51, 57, 16, -62, -7, 27, 20, 78, 39, -25, -2, -24, 41, -20, -41, -83, -22, 78, 11, -70, -26, -36, -66, -58, -57, -56, -89, -51, 42, 15, 39, 42, -39, -40, -37, -34, 76, -59, -19, 18, -17, -63, -53, 4, 29, 67, 57, 17, 4, 12, -76, -21, -7, 63, 51, -63, -100, 73, -49, 66, 41, 5, -27, 70, -70, 37, 14, 
  -69, -8, -3, 40, -7, -66, 77, -42, 44, -5, -9, -74, 27, -8, 41, -66, 76, 33, -30, 13, -10, 13, 59, 42, -24, -56, 9, -53, 40, -57, -53, -66, -24, 31, -59, 27, -64, -37, -11, -10, 34, 50, 35, -61, -50, -73, 22, 8, -1, 59, 26, -23, 16, 7, -74, 59, 25, -51, -29, 44, 26, -2, -8, 53, -27, -61, -71, -59, 50, 59, -64, 56, -20, -1, -66, 27, -17, 75, 36, -34, 24, -72, 15, 28, -50, -32, 56, 43, -49, 14, -11, 46, -72, -19, 60, 7, -26, -2, 83, 63, 2, -46, 55, -29, -23, 13, 102, -21, 4, 67, -8, -66, 20, 36, 30, 58, -17, 20, -51, -47, -57, -38, -71, -40, 0, -28, 22, 3, 23, -17, 46, 76, 40, -33, 38, -50, 1, -10, -66, -1, 68, -76, 43, -66, 18, -23, -26, -55, 33, 20, -29, -13, -62, -41, 21, -31, 72, -53, -76, 60, 76, 41, 19, 3, 40, 63, 58, -37, -72, 45, -50, -46, -22, -38, -9, 79, 24, 
  65, -9, -3, -73, -32, -38, 4, -47, 65, 0, -4, 22, -3, 39, 41, -20, -57, 75, -57, 5, 22, -37, -16, 43, -19, 78, -18, -24, 19, 77, 26, 71, -51, 71, -6, 77, 33, 50, 66, 38, 74, 65, -48, -48, 40, 49, -25, -71, -30, -67, 55, -71, -11, -24, 2, -56, -43, 26, -7, 7, 51, 62, -81, 36, -26, 30, 71, -37, -19, -72, 48, 6, -5, 40, 57, 10, -17, -22, -78, 72, -58, 72, 38, 15, 15, 4, -77, -14, -30, -46, 27, -52, -82, 35, 32, 65, -33, 25, -48, -28, 3, -30, -67, -23, -2, 55, 21, 13, -69, 8, 5, 19, 11, 49, -52, -18, -12, -54, 14, 20, 56, 32, -23, -56, 69, 48, -66, 49, 66, -34, 58, 43, -48, 73, 34, -33, -21, -2, 39, -9, 4, -40, -80, -58, -40, -83, -23, -9, 12, 12, 60, -68, -86, -48, -75, 15, -35, -70, 41, 12, 52, -31, 66, -8, -21, 75, 64, 18, 59, 14, 20, -1, 3, 6, -38, -69, 16, 
  58, -39, 74, -75, 7, 0, 33, 0, 68, -74, -38, -33, -41, 81, -19, 20, -59, 50, -60, -55, -12, -51, -30, -3, -16, 52, 10, 15, 70, -49, -74, -6, -36, -68, 34, 50, -7, 46, -27, -18, -66, 6, -50, 24, -36, 61, 31, 51, 10, 15, -80, 17, -19, 65, -38, -27, -23, 21, -34, -16, -76, -43, 20, 18, -63, -63, 80, -58, -3, 20, -62, 79, 33, 62, -80, 13, -28, -69, -14, 81, -71, -37, 40, 1, 33, -5, -61, -59, 33, 63, 0, 38, -5, -53, -18, 78, 14, -39, -40, 45, 74, 40, 60, -34, 75, 6, 63, -36, 57, -40, -28, 76, 10, -22, 31, -16, 8, -75, -23, -68, -34, 30, 27, 37, 15, 58, -54, -52, -46, -19, 16, -18, -3, -27, 8, 77, -40, 0, 81, -86, -3, -60, -20, -21, -4, 8, 45, 53, -15, 34, -63, 40, 33, -60, 25, -60, 33, 18, -36, 43, 11, 74, 38, -31, 40, -59, 16, 20, 4, 51, -14, 9, -67, 71, 75, -32, 46, 
  16, -40, -58, 24, -65, -79, -58, -16, 32, 51, -30, 69, -9, -9, 52, -13, -60, 28, 47, 8, 40, -74, -42, 57, 41, 12, -57, -17, 12, -72, 49, -36, -5, 22, -20, 45, 46, 46, -44, 24, 30, -12, -64, 13, 22, -12, -4, 47, 50, 45, 1, -18, 60, 24, -65, 10, -52, 81, 16, 19, -4, -6, -37, 16, 4, -48, 79, -24, -13, 72, -28, 55, 43, -70, -30, -43, 71, -57, 52, -43, -10, -38, -43, -55, -45, 63, -64, -44, 69, 32, -53, -64, -56, 2, 1, -74, -70, -45, 37, 8, 11, -52, -58, -95, 1, 51, -10, 38, -12, -12, 76, 59, 30, -2, 25, -93, -6, 78, 54, -66, 43, 60, 9, 60, 21, -44, -56, -6, -37, -5, -33, -23, -16, -13, 16, 39, 20, -58, 19, 8, -42, 67, -74, 37, 27, -68, 66, 13, -10, -69, 52, 49, 56, 52, 66, -46, -11, -31, -34, 45, -4, -83, 58, -73, 50, -6, -7, -81, -30, -65, -11, -51, -12, -62, -74, -81, -62, 
  -29, 70, -17, 19, 44, -56, -3, -51, -17, 43, -43, 50, -69, 78, 37, 61, -55, 19, 5, 53, -9, -50, 78, 50, 25, 29, -66, -1, -73, 65, -8, 6, 0, 49, -37, 20, 24, 49, -12, -24, 48, 46, 31, -68, 62, 66, -6, 62, -20, 28, -5, 3, 66, 2, 4, -16, 73, 80, -16, -26, -16, -74, -25, -71, 62, 63, -1, -47, 29, -14, 27, -54, 50, -48, -17, 71, -32, 54, 19, 18, -24, 61, -19, -81, 9, 54, 67, 42, -71, -3, 9, -79, -37, 59, 51, 60, -17, -18, -2, -52, 43, 2, -52, -29, -5, 78, -74, -56, 15, 40, 19, -49, 31, 22, 52, -3, -44, 35, 19, 66, 21, 21, -26, -66, 10, 39, -73, 45, -28, 77, 11, -49, 39, -25, -15, 52, 77, 31, -39, -33, -74, -21, -16, 1, 79, 13, 9, 7, -2, 41, 78, 77, 47, 34, -30, -56, -66, 43, -5, -15, -42, -28, -28, -24, -55, -3, 39, 2, -21, 19, -42, 57, -32, 51, -6, 12, 7, 
  35, 10, -37, -35, -60, -28, -48, -24, 25, 49, -71, -5, -62, 75, 44, 41, -8, -78, -11, 14, 60, -40, -32, -27, 18, 66, -57, 15, -64, 25, 9, -60, -39, -14, 18, 57, -9, 68, -19, -35, 3, 69, -26, -75, 70, -66, -19, -37, 68, 56, 50, -53, 4, -41, 66, -37, -8, 28, -20, -81, -41, 41, 71, -60, -13, 63, -56, 30, -66, 73, 8, -64, -16, 48, -23, -22, -43, -62, 77, 52, -16, 35, 28, -5, 41, -30, 38, -71, 57, 71, 52, 50, 54, 19, 11, 38, -21, 5, 45, 25, 13, -57, 62, 11, -47, -58, 61, -51, 44, 71, -11, 54, -66, -80, 76, 67, 52, -43, 54, 18, -54, 24, -20, 1, -71, -65, 12, 24, 17, 39, 4, 73, 23, -70, 33, 22, 54, 72, -27, 20, -40, -2, 65, 67, -24, -59, 72, -56, -28, 26, 53, -18, 17, 30, 6, 10, 13, -23, -34, 78, -30, 36, 22, 66, -18, -4, -68, -8, -20, -48, 29, -25, -36, -25, 20, -42, 23, 
  35, 6, 67, -74, 29, 26, 62, 17, 68, 14, -10, 47, -33, -58, -67, 48, 53, -41, -13, -49, -71, 59, -43, 77, -21, 1, 20, 0, -33, 61, 72, 18, 23, 6, 27, -78, -25, -84, -82, -8, -45, 36, 61, 24, 59, -70, 14, 45, -76, -87, -64, 21, 60, -45, 59, -2, 26, -47, -54, -31, 9, 57, -34, -75, -46, 68, 36, 7, 64, 19, 14, 78, -44, -49, 28, -5, 59, -35, -64, 51, 48, -61, -22, -25, 70, 21, -22, 37, 6, 73, -60, 73, -10, 51, -16, -39, -58, -58, 49, -2, 44, 46, 42, -10, 58, -31, 5, -68, 0, 49, -30, 41, -40, 47, 3, 0, 64, 70, -10, -50, 82, -48, -84, 17, -42, 2, -29, 60, -65, -45, 27, -43, -60, 16, -11, 32, 63, -26, -65, 2, -17, 69, 15, 21, -46, 67, -47, -63, 50, 4, -49, -20, 15, 13, 42, -60, 17, -4, -43, -27, -9, -16, 26, 72, 3, 56, 20, 21, 20, 57, 31, -59, 51, 23, 43, 29, -55, 
  44, 23, 81, 47, -24, 56, -60, 24, -72, -38, -26, 44, -13, -43, 36, 80, 43, 45, 27, 56, -9, -66, -38, -53, 63, 54, 65, -14, -64, 75, -4, -56, -66, 44, -39, 22, -16, -25, -76, 41, 25, -15, -60, -6, -22, 6, 22, -7, 10, 64, -16, -7, 10, -6, 21, -10, -6, -68, 53, -40, -15, 1, 67, 23, 8, 35, 16, -77, 29, -37, -17, 8, 19, -39, 58, -34, -19, 47, -4, 75, -21, 46, -35, 73, 69, -40, -36, 66, -38, -75, -7, -36, 60, 50, 7, -48, -61, 39, 9, -19, 4, -4, 1, 55, 32, 52, 41, -52, -74, 53, 11, -67, 75, -34, 36, 93, -79, -12, 37, 18, 49, 72, 60, 54, -16, -42, 16, -30, -48, -53, 30, 35, 28, 66, -70, -79, -6, -11, 23, 45, 51, -10, -4, 29, -40, -85, -66, -53, -46, 6, -65, -76, 1, -12, 62, 19, -80, 29, 41, -23, -22, -47, -35, 26, 54, -66, 38, 60, -69, -6, 60, 11, -47, -43, 47, -5, 44, 
  -11, 68, -34, -21, -56, -72, 48, -67, -23, 3, 65, -78, 45, 63, -7, -3, 48, -63, 79, 43, -20, 70, -6, -42, 30, -71, 32, 66, -19, 46, 7, 67, -61, 9, 69, -4, 45, -78, -31, 41, -50, -54, 33, 17, -46, 51, 70, -71, 35, 4, 64, 0, -32, 61, -4, -5, 15, 54, -47, 69, -41, 28, -25, 0, -21, 68, 15, -15, -19, -8, 37, 39, 22, -49, 49, -56, 43, 0, 72, 41, 70, 72, 69, 67, 50, 44, 55, 60, 72, -5, -3, -75, -77, 39, 33, 64, -54, 36, 47, -45, 27, -70, 11, 23, 40, 29, 12, -47, 74, -44, 51, 67, -61, -75, -68, -66, 51, 34, 15, -13, 71, 47, -52, 54, -78, 54, -8, 13, 57, -43, -66, 37, -72, 79, -26, 44, 33, -10, 80, 6, 27, 47, -32, 1, 67, -62, 52, -25, 51, -8, -19, -2, -33, -29, -14, 59, 57, -32, -67, -2, 43, 9, 59, -75, 26, 80, -50, 46, -27, 47, -58, -26, -62, 20, -10, 30, -64, 
  -30, 23, -59, -69, 34, -8, -54, -30, 74, -56, 2, -15, -22, 49, -44, 70, -20, -49, 39, -45, -16, -67, 37, 47, 75, 28, -57, 57, 9, -7, 62, 5, 16, 16, 8, 39, -60, 12, -9, 83, 44, -9, 42, 3, 25, -42, -9, 21, -48, -1, -2, 0, 49, -51, -65, 0, -31, -51, 15, -8, -42, 48, -7, 73, 29, 34, 61, 13, -25, 31, -2, 64, 18, -24, 0, 72, -69, -27, 11, 64, 74, -67, -17, 0, 2, 47, 8, -47, 6, -2, 24, 19, -36, 67, 63, -54, -21, 50, -71, -54, 39, 39, -12, 39, 56, 51, 50, 49, -70, 36, 13, 62, 34, -67, 45, 28, 0, -54, -36, 38, 17, 15, -26, 54, 21, -9, -53, -73, 27, -64, 50, 23, 23, 48, 50, -57, -17, -48, 42, -58, -41, 32, -61, 26, 8, 53, 1, -8, -30, 10, -71, 20, 6, -53, 62, -78, -3, -4, -32, 38, -15, 22, -78, 9, -25, -51, 60, 40, -49, -86, 65, 67, 79, 6, 29, -70, -66, 
  -14, -65, -39, -38, -2, 13, 0, -47, -20, -57, 22, 13, 14, 60, 77, -55, -34, -79, -11, 13, 69, -39, 25, 21, 34, 21, 61, -58, 53, 2, -44, -29, 35, 69, 54, 1, -45, -78, 31, -26, -61, -13, -1, 11, 64, -21, 71, 66, 2, 37, 45, 44, 37, -52, 84, -17, 72, 38, 12, 24, -2, -48, -77, -33, 49, 66, 40, -22, -24, -18, 78, 35, 23, -7, 19, -16, 23, -22, -55, 49, -1, 7, -38, -1, 11, 76, 40, 83, -42, -23, -41, 64, 28, 55, 18, -68, -56, 61, -60, 32, 2, -48, -15, -77, 55, -45, 30, 57, -1, 41, 15, 18, -32, 38, 23, -55, -21, -49, -68, 44, 46, -50, 60, -19, 48, 67, 62, -39, 4, -52, 26, 27, 5, 72, 68, 81, 1, 0, 45, -73, 18, 64, 60, -22, -71, 12, 64, 50, -42, -58, -49, 2, 0, -49, -47, -2, 54, -60, -39, -16, -60, 46, 22, -28, -37, -73, 2, 7, -16, 55, -36, -25, 41, 54, 65, 27, 19, 
  -75, 43, -4, -11, 32, 64, -62, -29, -24, 11, -41, -36, 17, 19, -30, 72, 53, -25, -8, -31, 8, -26, 32, 48, 76, 23, -16, -28, 25, 39, 60, -10, -26, -73, 69, 68, 41, 31, 41, -16, 38, 46, 20, -8, -4, -33, 4, -52, -35, 10, -3, 19, -63, -40, 51, 26, 17, 78, 22, 76, 16, -2, 26, 65, 79, -33, -64, -74, 58, -32, 0, 12, -9, -10, -3, 77, -42, -23, -33, -3, 12, 68, -16, 29, -26, 53, -22, -51, 29, -60, 23, 77, -21, 70, -74, 22, 23, 28, -74, 40, 13, -68, 36, 54, 40, -6, -2, 64, -15, 5, 16, 30, -52, 9, 55, 9, 61, 68, -59, -59, -69, -65, -77, 65, 17, -50, 27, -57, -6, 25, 7, -33, 26, 47, -76, 32, -7, 4, 68, 19, -69, -64, -65, -13, -50, 64, 50, 79, -53, 29, -73, 10, -27, 27, -9, -37, 33, 18, 9, -49, -76, 14, -13, -7, 6, 29, 73, 20, -29, -44, 9, -47, -23, 22, -54, -52, 42, 
  46, -64, 10, -46, 45, 81, -60, -26, -54, 60, 77, 47, -38, 44, -61, 1, -62, -33, 83, -11, -19, -26, -50, 48, 2, 68, -5, -61, 13, 42, -61, -21, -41, -19, 20, 12, -69, -37, 3, 76, 6, -57, 71, 47, -20, 50, -22, -16, -69, -21, -47, -42, 63, -17, 67, -29, 37, 32, -43, -6, 66, 13, 13, -62, 74, 31, 41, -38, -1, 26, -27, 65, -28, -58, 58, 32, 78, 13, 20, 49, -2, 30, 13, -61, 69, 73, 15, 67, -30, -64, 82, -66, 13, 18, 10, 77, -4, 18, -23, -67, -21, -11, -10, 42, 54, -63, 9, -78, -29, -23, -56, -41, 68, -26, -39, 46, -23, -29, -79, -14, 4, 23, 52, -58, -15, -56, -4, -58, 46, 81, -29, 29, 30, 1, -41, 7, -24, -34, -70, 36, -71, 71, 59, -39, -32, 2, -72, -28, 34, -38, -3, 25, -73, 25, -21, -8, 19, 61, 41, -9, 1, -27, -12, -6, -28, 34, -42, 61, -40, 81, -32, -52, 18, 17, 15, -48, -68, 
  -57, -67, 22, -30, -45, 72, 19, 29, -56, 56, 41, 6, -29, -23, -4, 13, 72, -5, 66, 64, -10, -32, -20, 23, -65, 31, -62, 66, 23, 5, 27, -19, -59, -29, 34, 28, -34, 0, 3, -52, 62, -34, -30, -46, 4, 39, -43, 73, 52, -71, 45, 61, -29, -4, 4, -34, 74, -1, 21, -37, 79, -22, 80, -52, 50, 55, -75, 65, -57, 69, -10, 10, -29, 72, 52, 49, 70, 48, -7, -65, 25, -1, -48, -28, 15, 73, 25, 70, 73, 37, -57, 36, 60, -2, 5, 74, -49, 18, 67, -73, -81, -60, 39, 14, 57, 79, 17, 16, 68, -48, -33, 78, -37, 7, 7, -63, 25, 49, 30, -34, -49, 25, -66, 11, 1, -54, -63, 41, -59, -17, -20, 21, 28, -6, 9, 20, 24, 33, 33, 11, 80, 53, -53, -35, 81, 0, 25, 36, 19, -15, 51, 18, -47, 61, 1, 35, -29, 46, 23, 43, 64, -2, -68, 2, 43, -10, -11, 60, 38, -5, -37, 74, -42, -19, -37, -66, -35, 
  -18, -8, 1, -73, -40, -14, 43, 53, -4, 22, 39, 62, 31, -61, 57, -64, 97, -43, -11, -31, 65, -14, 20, 21, 56, -51, -56, 22, -76, 83, 13, 45, 21, 68, 18, -42, -60, -42, 60, 30, -7, -23, 2, -8, -3, 80, 56, -4, -22, 35, -65, 30, -30, 67, -30, -26, -11, -70, 17, 46, 49, 50, 57, 42, -54, -56, -65, 89, 14, 52, -59, 69, 71, -28, 70, -78, 85, -71, 18, 53, -78, -65, 58, 30, 44, 3, 0, 61, 46, 76, 23, 10, -21, -32, 59, 25, -18, 50, 56, 2, -76, -29, -69, -72, -62, -58, -81, 55, -51, 33, -78, -14, -65, -7, -30, -23, 62, -13, -50, 3, -51, -79, -35, 21, 72, -27, -76, -90, 38, -23, -40, -68, -58, 27, 29, 0, 42, 50, 48, -3, 77, -60, 5, 48, -8, 1, 70, 53, 27, 14, 42, -31, -21, -8, 28, -71, 23, 30, 4, 46, 3, -21, -13, -1, 32, 39, 40, -24, -74, -2, -51, -55, 9, -2, -61, 69, 34, 
  -44, 56, -47, -12, 31, 33, -11, 54, 69, -37, 18, -77, -59, 41, -10, -79, 9, 70, -2, -37, -6, -26, 24, 5, 23, -74, 12, -68, 22, 6, -12, 25, -14, 51, -72, -18, -33, 42, 75, 8, 5, 17, -50, 22, -58, 44, -81, 41, -20, -67, -31, -71, -4, 51, 74, 79, -12, -74, 74, 42, 21, -30, -6, 30, 58, 34, 60, 26, -1, 74, 46, 20, -25, -72, -20, 31, -35, 57, 35, -19, 13, -75, 18, -28, 71, -46, 4, -36, 11, -7, -61, 96, -37, -41, -44, -18, 48, 62, -7, 74, 4, -80, 26, 23, 56, -51, 12, -17, -38, 8, 4, 18, -50, 60, -32, 4, 6, 21, -102, -61, 7, -29, 38, -24, 11, -80, 23, -102, 72, -64, -79, 22, 56, -59, 47, -46, -56, 44, -21, -15, -42, 2, -13, 82, -54, -42, 20, 1, 58, 10, 29, -3, 59, -52, -29, -37, 40, 9, -34, 9, 29, 52, -47, 85, 62, 74, 55, 74, -40, 1, -35, 15, -18, 24, 53, 71, -62, 
  55, 88, -28, -57, -30, -63, -33, -56, -29, -4, 71, 31, 37, 62, -24, -24, -62, 40, -32, -23, 10, -73, -55, 33, 74, 45, 1, 80, -14, -5, 45, 31, -41, 64, 93, -56, 57, 25, -5, -54, -29, 12, -42, 46, -61, -45, 26, -17, -46, -4, 57, -37, 59, -70, -54, -34, 36, -34, 1, 57, -43, -80, 19, 15, 74, 45, 28, 30, -49, -28, 80, 33, -33, 54, -14, -13, -66, -32, -13, 48, -6, 66, 9, -73, 25, 47, 82, -7, 43, 11, -72, 15, 35, -21, 77, -36, -61, 60, 36, 17, 87, 9, 67, 46, 77, 7, 22, 58, 80, 49, 2, 11, 60, 63, -1, 28, 40, 39, -22, 69, -2, 8, -58, 44, 33, -69, -15, -47, 37, 5, -51, -51, -55, -57, -23, -40, -62, 1, 65, 72, 66, -51, 58, -48, 77, 95, 45, 84, 27, 51, -31, -71, 37, 27, 52, 9, 79, 27, -72, 78, 37, 79, -55, 26, -56, -41, 90, -46, 32, 38, 2, -37, 55, 52, -22, 35, -54, 
  -34, 71, -55, -19, 12, 45, -46, 24, 8, -62, -17, 69, 27, -38, -30, 31, 37, -10, 42, -46, -23, -58, -59, -39, 53, 11, -76, 60, -3, 39, 78, 43, -71, 77, -55, 26, 11, 19, 0, -57, 64, -32, -4, 6, -5, -68, -59, 82, 61, 43, -63, -21, 9, -1, -19, -71, -75, 49, 5, -13, 31, -58, 55, -73, -60, -71, 29, 22, -48, -26, 60, 39, 1, 37, 6, -44, 17, 37, -19, 66, 12, 46, 43, 32, -68, 46, 79, -51, -14, -42, 30, -67, -25, 67, 23, 33, -34, 35, 3, -10, 65, 10, -58, -4, 47, 52, -63, 3, 53, 49, 38, -42, -25, 5, 26, -41, -30, 47, -53, -50, 58, 18, -5, -10, 33, 63, -75, -22, 36, 14, -40, 45, 71, 50, 76, -8, -50, 41, 36, 31, -68, 1, 18, 10, 81, -77, -9, 20, 55, -9, 60, -16, -72, 58, -16, -64, -47, -69, -45, 11, -74, 22, -7, -1, 59, 68, 27, 20, -42, 72, 59, 2, 36, -59, 18, -40, -28, 
  23, 56, 42, -50, 6, 70, 5, -83, 74, 0, -68, -75, -23, -8, 54, -67, 44, -44, 44, 51, 78, 5, 36, 22, 20, 42, -56, 20, 40, 60, 32, 71, 58, -23, -51, -49, -64, 59, -57, 32, 37, -13, 7, 70, -78, -44, 9, -76, -14, -11, 40, -19, 29, 85, -40, -24, -54, 48, -17, 27, 63, 50, -39, -83, 26, 79, -74, -25, -33, 62, -32, 32, -65, -24, -69, 6, 73, 21, 3, -60, 39, -48, -51, -33, 70, -44, -15, -69, -5, -30, 41, -23, -25, -33, -82, 34, -47, -11, -44, 59, 1, 0, -68, -8, -64, 29, -46, -1, 60, -9, 29, -31, 45, -46, 4, -1, 26, 51, 39, 54, 7, -5, -67, -76, -45, 31, 17, 19, -10, 11, 33, -29, 52, -10, 46, -34, -26, -23, 18, -64, 60, 62, -39, -1, 39, -7, 15, 74, 13, -61, -28, 48, 68, -31, -60, -62, 1, -59, -11, -51, 3, -54, 21, -2, 2, -36, -7, -69, -7, 16, 33, -26, -60, 47, -34, -16, -35, 
  18, -30, -81, 5, 34, -2, -42, 18, 62, 3, -11, -55, -69, 56, 36, -1, 78, 47, 14, 18, -72, -74, 0, -26, 30, 5, -79, -38, 76, -44, -42, 31, 77, 2, -26, -56, 41, 60, 73, -29, -83, -29, -79, -40, -63, 16, 37, 80, -65, 16, 34, -77, 18, 46, -58, 18, 42, -29, -22, -79, 24, 77, -57, 62, -12, 6, -45, 57, 71, 75, 24, -53, 65, -47, 24, 67, 46, 50, -11, -24, -25, 73, 24, 30, -40, 44, -1, -49, -10, 58, -60, -49, 0, 11, 26, -14, -36, -32, 86, 64, 25, -78, 31, -45, 29, -22, -57, -31, -15, 57, 30, -42, 29, 36, -73, -55, -31, 69, 57, 4, -34, 0, 20, -15, 10, 6, -50, 35, -8, 12, -42, 45, 7, -28, 56, 55, -52, 39, 1, 67, -56, 75, 12, -75, 13, 6, 5, 12, 35, 8, -75, 39, 63, -28, -48, 10, 21, 42, -53, 54, -52, -19, 74, 4, 37, -41, 12, 21, 51, 18, 14, -43, -33, -65, 74, -23, 88, 
  -59, 60, 19, -25, -46, -35, -36, -48, 82, 68, 53, -73, 76, -60, -15, -71, -55, 18, -29, -66, 38, -4, 47, -28, 34, -18, -62, 51, 81, 15, -8, 44, 71, 73, 37, 23, -5, -54, 0, 3, -15, -66, 24, -1, -38, -12, -64, 49, 80, -76, -69, 61, 12, -1, 6, -28, 29, -43, 9, -46, 8, -41, 71, 42, -37, -13, 17, -72, -52, -74, 57, -2, -30, 36, 21, -23, 70, -41, -70, -23, -67, 8, 25, -63, -18, -19, 62, -53, -44, 15, 13, -65, 24, 43, -6, 47, -26, 28, -45, -42, -35, 37, 83, -45, 52, -7, 67, 81, -72, -36, -21, -20, 27, 34, 9, -10, -52, -58, 65, 71, 60, -14, 5, 59, -1, 46, 29, 13, 26, 76, -63, -61, -72, -44, 39, -71, 24, 78, 26, 68, 20, -1, -17, -2, 0, -15, 19, -19, 89, -45, 26, -10, -68, 8, -31, 42, -65, 56, -20, -7, -12, 17, -68, 45, -54, -49, -2, -70, -50, 37, -38, 82, -69, 35, 54, 58, 29, 
  70, 77, -11, -10, 79, 26, -26, 36, 4, -6, 100, 8, -19, 1, 36, -70, 63, -29, -4, 55, -18, 33, 58, -5, 6, 109, 44, -66, 42, -36, -43, -27, -21, -43, 2, -63, -61, 70, 5, 21, -45, 70, -64, 82, -11, 5, -33, -4, -59, 93, 62, -59, -17, 43, -57, -12, -77, 53, 77, -38, -73, 18, 17, 3, 103, -9, 53, -18, -73, -69, 46, 9, -3, 69, -35, 45, 112, 11, 6, -3, 22, -58, -23, 4, -38, 70, 9, 74, 41, 19, -2, -51, -29, -21, -22, -46, -40, 37, -76, 40, 0, 51, 48, 101, 21, 3, 62, -11, 35, -88, -1, 32, 40, -2, 65, -36, -46, 75, 106, 81, 77, 11, 25, -28, 44, -69, 39, 71, -24, 4, 63, -46, -45, 55, 61, 22, -21, 3, 32, 22, 29, 83, 7, 53, 18, 73, 10, -46, 104, -11, -19, 19, 45, 60, 25, 12, 68, 41, -59, 18, -57, 53, -44, 81, -19, 15, 63, 50, 61, 21, -40, 67, 5, 31, -9, 37, -73, 
  40, 3, -56, -26, 60, -55, 30, 46, -42, 80, 19, -5, -29, 17, 60, 48, -54, 57, 36, -71, 0, -25, -6, -45, 67, -49, -13, -72, 35, 12, 11, 20, 82, 61, -30, -56, 81, 71, 42, 69, -22, 12, -72, 1, -5, 30, 61, -46, -44, 8, 45, 61, 59, -31, -53, 4, -73, 75, 25, 79, -55, 63, -59, -34, -11, -34, -31, 39, 43, -61, -29, -62, -42, 40, 82, 58, -43, 27, -7, -61, 76, -27, -82, -11, 68, 70, -45, 81, -23, 78, -2, -44, 46, -42, 57, 67, 5, -22, -12, -41, 52, -46, -49, 22, -12, -4, -18, -11, 26, 33, 41, 78, 4, 1, -25, 56, -41, 69, -11, 6, -60, 69, 54, 64, -19, 35, -64, 14, -7, 42, -20, 5, -22, 14, 55, -34, -20, -7, -33, -35, 12, 61, -34, -17, -27, -38, 15, 41, -65, 51, 77, -16, -41, -34, -46, 42, -74, -34, -50, 14, 22, -53, 9, -47, -68, 32, -8, 33, 57, 54, -62, 35, 13, -64, 74, -15, -68, 
  -12, -19, 36, 34, 24, -2, 21, -2, -72, 22, -22, -57, 20, 38, -51, 25, 71, -9, 34, 52, 41, -29, 49, -33, -5, -34, 37, 0, -62, 12, -48, 64, -43, 45, -54, 56, 16, 16, 18, 8, -33, 23, 21, -31, 65, 25, 56, 45, -23, 5, 23, -26, -68, -41, 23, 38, -26, -5, -24, -6, -13, 47, 14, 62, -65, 76, 41, -61, 34, 13, -54, 25, -73, 50, 62, -45, 58, -58, 41, 36, -12, -73, -50, 13, -60, 28, 78, -2, -2, -25, -71, 70, -12, -76, -9, 37, 69, -9, 6, -42, -51, -61, 30, 13, -26, 50, -43, 40, 69, -47, 66, -5, 31, 18, -41, 41, 76, -40, 69, 37, -9, -29, -24, 29, -24, -48, -21, 30, -26, 78, 19, -57, 75, 47, -48, -11, 65, 25, 29, 42, -46, -18, 77, -47, 33, 28, 34, 80, -73, 12, -6, -14, 44, -20, 30, -45, 3, 40, -19, 58, -43, -58, 64, -72, -59, -61, -30, -8, 39, -62, -19, -52, -40, -8, 49, -56, 27, 
  21, 77, -32, -33, 42, -29, 58, 82, -4, -5, 60, 8, 37, 22, 49, 22, -35, -6, 9, -22, 13, -17, 71, -33, 5, -59, 77, -30, -49, 40, 60, -54, -29, 32, 63, -73, -48, 63, -23, 38, 24, -68, -58, 60, -2, -29, -43, 17, 3, 76, 52, -69, -27, 11, 50, -21, -41, -48, 43, -48, 37, -3, 65, -22, 23, -22, 78, 63, -8, 21, -27, 18, -9, -69, -79, -54, 47, -78, -49, 54, -40, -48, 66, 59, 62, -8, -22, 15, -13, 10, -70, -74, 21, -21, 44, 23, 69, -6, 56, -4, -39, -42, -44, -36, -38, 60, 70, 50, -28, -2, 62, -54, -89, 76, 3, 62, 58, -59, -19, -44, 60, -19, 53, -26, 32, -40, 5, -5, -36, -27, 53, 50, -6, -44, 0, -43, 75, -16, 60, 49, 0, -28, -65, 20, 35, 68, -71, 43, -38, -39, -16, 51, -68, -79, 30, 74, 26, -81, -52, -5, 37, 36, -59, -12, -11, -14, -62, -31, -9, 14, 43, 14, -11, 65, 13, 65, -49, 
  4, 67, 47, -71, -8, 63, -7, 9, 4, -65, 26, -66, 69, 30, -18, -61, 50, -54, 75, 38, 41, 59, -31, 66, 11, -39, -61, -17, 36, 70, 11, 57, -64, -50, 66, 24, -6, -1, 41, 13, -2, 43, 72, 7, -27, -35, 70, -28, 16, -52, 66, -8, -39, 20, -74, 13, -72, 19, -48, 28, 9, -65, -74, -50, -32, 18, 1, 33, 20, -5, -63, -37, -35, -39, 12, -50, 29, -61, 11, -41, 59, -7, -38, -63, 45, 64, 24, 37, 41, -77, -11, 0, 16, -16, 13, 21, -57, 38, 23, 32, 4, -67, -78, 19, -56, 13, -68, -34, 70, -51, -51, 6, 2, 11, -46, -14, 30, 71, -30, -64, -7, -48, -50, 73, -60, -43, 16, -70, -65, 65, -1, -43, 44, 23, 20, 28, 60, -64, -41, -45, 3, -52, 1, -14, -7, -5, -67, 68, 54, 27, 2, 36, 32, 77, 43, -16, -2, -75, -17, -9, -29, -66, 54, 26, -39, 46, -39, 36, -44, -46, -17, 9, -76, 67, -64, -45, 49, 
  23, 53, 37, -16, 27, 43, -28, -74, 32, -19, 54, -9, -59, 68, -35, -44, -9, -8, 68, 0, 85, 49, 41, -8, 20, -24, 57, 22, -47, 80, -6, -74, -13, -68, 12, 45, -25, 67, 70, -35, -60, -23, -34, -77, -44, 44, 71, -38, 23, -36, 84, 44, 0, 3, -34, 56, 66, -8, 57, 63, -59, -77, 9, -35, 53, 34, 23, 43, 63, -15, 66, -69, -49, 26, -10, 71, 41, 3, -60, 51, -73, -41, -71, -46, -69, 9, 34, 9, 45, 13, -53, 5, 31, 53, 72, 19, -50, -7, -31, 6, -11, 25, -24, 24, 71, 68, -56, 30, -59, 30, 76, -20, 65, 39, 72, 72, 2, 2, 7, -35, -22, -57, 69, -67, 65, -29, -33, -78, -1, -73, 81, 11, 10, -43, -66, -55, 69, -26, -31, -53, -17, -4, 27, 46, 50, 35, 64, -33, 1, -51, -3, 74, -1, 68, -74, -14, -31, 31, 13, -17, 5, -50, 0, 12, -40, -36, 13, -14, -23, -34, 25, 16, -28, 68, -52, 29, -47, 
  29, -26, 72, -65, 10, 52, 75, 51, -58, 38, -45, 71, 76, -59, 3, 55, -64, -76, -2, -65, -64, -56, 53, 76, -17, -72, 72, 41, -16, 33, 50, 56, 72, 49, -15, 58, 43, -12, -43, -33, 6, -1, -24, 61, 70, 32, -45, 38, -4, 80, -10, -55, -71, 59, -1, 79, 77, -5, 1, -74, 79, -78, -76, 3, 41, -49, -74, -68, -69, 15, -12, -41, -10, -1, -1, 10, -23, -63, -33, -64, 57, -70, 20, 58, -73, 8, -44, -19, 54, -26, 47, 78, -67, 57, 47, -29, -5, -60, -34, 59, -31, -18, -33, -54, 58, -22, 69, 31, -1, 71, -37, 50, -74, 18, 73, -65, -64, 65, -15, -10, 22, -57, 69, 75, -1, 77, 34, -60, -44, 16, -39, -12, 83, 18, -33, 40, -10, 53, 53, 78, 54, 56, -17, 32, 64, -13, 16, 73, 30, -19, 57, -43, -74, -56, -44, -12, -27, -65, -76, 54, -25, -2, 25, 61, -62, -30, 28, -76, 56, -30, 68, 54, -45, 47, -20, 63, -9, 
  1, -14, -35, 43, 64, 46, -73, 0, 74, 61, -3, 24, 7, 2, 71, 2, 68, 29, -52, 10, 17, -70, -33, -9, 49, -24, 41, 84, -64, -32, 51, -23, 67, -70, -60, -17, -15, -35, -77, -72, 71, 17, -17, 2, 60, 45, 3, -19, -20, 46, 76, -10, -76, -4, -70, -55, 32, 55, 5, 13, 69, -43, 10, -73, -18, -26, -5, 22, -77, -77, 34, -49, -31, 55, 71, 7, 60, 11, 59, -46, -18, -65, 59, 54, 82, 9, -41, -75, -31, -44, 43, -32, 0, -80, 41, -18, 12, -2, -68, -66, 7, 23, -67, 32, -33, 39, 76, 55, -64, 70, 11, 7, 79, -71, 49, 65, -16, 32, -28, -78, 7, 74, -50, -7, -7, -42, -35, -46, 61, 3, 12, 69, -60, 23, -73, -46, -10, -50, 16, 73, 41, 59, -11, 12, -58, 45, 52, 12, 55, -33, -83, 35, 21, -9, 31, 69, 59, 32, 59, 69, 12, -61, -10, -23, -61, 40, 19, -67, 36, -49, 41, 77, 1, -46, 36, -10, 76, 
  -28, 23, -55, 75, -24, 48, -24, -37, -38, 30, -29, -77, 48, 32, 2, 69, -3, -27, -3, 41, 4, -3, 37, 53, -53, -2, 18, 25, -20, -54, -60, 70, -59, -34, 39, -27, 38, -75, -31, 59, -74, -61, -77, 15, 3, 75, -57, -20, 52, -4, 41, -28, -76, -30, 47, -38, 37, 71, -48, -65, 75, 61, 44, -70, -81, -16, 34, 12, 74, -56, 33, 1, -23, -27, 18, -55, 34, 16, 19, -13, -56, -43, -36, -48, -19, 39, 24, -46, 70, 61, -25, 55, -35, -76, -45, 70, 67, -63, 42, 21, 61, 1, 36, -8, -62, -3, -31, 15, -69, -24, 19, 45, 59, -31, 47, 47, 28, 2, -72, 55, 1, -43, -80, 52, 62, 8, -50, 50, 0, -13, -35, 34, 77, -43, -2, 47, 33, -21, -47, -28, 30, 51, 27, 0, -41, 69, 11, 18, 32, 26, -7, 38, 26, 62, 73, 58, 52, 18, -52, 19, 21, 20, 61, 50, 48, -16, 59, 68, -18, -47, -68, 13, -35, 0, -66, -23, -38, 
  -67, -32, -16, -62, 60, 18, 60, -7, -6, -23, 56, -55, -53, -41, -9, -60, -8, -3, 1, 57, -75, -39, -61, 31, -56, 45, -14, 34, -52, 83, -5, -17, 24, 57, 29, -10, 48, 25, -30, 43, -65, -11, -56, 27, -1, 49, -31, -39, -41, 1, 27, -3, -61, -14, 3, 48, -53, 1, 59, -17, 9, 1, 7, -11, -6, -63, 20, 55, 25, -45, -55, 52, 5, 18, 15, 38, -19, 79, -52, 55, -9, 1, 30, 31, 49, 53, 57, 21, 12, 65, -41, 31, -58, -15, 46, -79, -4, -25, -53, -34, -58, -16, -26, -7, 33, 0, 69, -42, 9, -73, 73, -65, 53, 58, 53, 73, 56, -11, 78, -15, -57, -41, 42, -70, -60, 60, -5, -70, 4, 33, -70, 37, -15, -39, -39, 64, -23, -52, 61, -12, 72, -11, 78, -84, -29, -2, -32, 45, 54, 7, -42, 66, -48, -53, -51, -23, -20, -38, 52, -7, 57, -27, 55, -11, 29, -52, 54, 12, -45, -38, -32, 35, 29, -2, 81, 35, 13, 
  50, -73, -24, -36, -44, 12, 34, -6, -17, 74, 66, -8, 34, -33, 23, 20, 84, -53, -49, -52, 58, -21, 36, -12, 1, -84, -4, 72, 28, 49, 39, -71, -11, -17, -16, -42, -62, 72, -44, -35, 110, 11, 40, 59, -8, 15, 14, 75, -59, -10, 75, 64, 31, 32, -53, 20, 77, 61, -12, 73, -34, -36, 60, 42, -22, 53, -12, -56, -19, -9, -92, -47, 71, -38, -45, -49, -74, 42, 53, -42, 59, 53, 14, -30, 76, 26, 54, 69, 39, -68, -73, 2, 45, -71, 35, -57, -37, 11, -31, -75, -24, -67, -18, 25, -48, -40, 4, 61, -73, 68, 63, 43, 80, 58, -41, -39, -54, -6, -64, -37, 69, -94, 26, 3, -30, -46, 15, -32, 52, 31, -2, -41, -41, 42, -3, -56, 8, 12, -66, 57, 7, -48, 40, -74, -15, -44, -74, 70, -36, 58, 74, -2, 21, 20, 41, -50, -26, 37, -57, -60, 48, 18, -74, 28, 17, -71, -65, -60, 68, -25, 62, -75, -29, 39, 49, 48, -52, 
  -61, 18, -48, 81, -57, 44, 15, 25, -43, 32, -73, -48, -68, -53, 59, 34, 16, 8, 71, -62, -50, -27, 27, 17, -65, -80, -11, 52, -2, -71, -54, -28, 73, -35, -52, -62, -64, -85, -65, 23, -39, 35, 21, -48, 26, 18, -102, 57, -63, -28, 11, -16, -86, -12, 79, 35, 24, 52, -88, 50, 0, -27, 8, 27, -68, 32, -60, -84, -72, 54, 22, -68, 22, -12, -14, 47, 71, 11, 44, -1, 17, -52, 71, -25, 71, 43, -46, 61, -83, -75, 34, 38, 7, 31, 44, 37, -8, -92, -73, 74, -4, -73, 25, -21, -68, -7, -55, 60, 2, 8, -45, 70, 65, 47, -67, -62, 66, -60, -39, -7, 42, 36, 53, 81, -69, 47, -39, -81, 36, 71, -94, 15, 54, -81, 2, 65, 14, 33, -75, -10, -58, -27, 47, 16, -58, -19, 26, 39, -72, -38, -32, -41, -72, -20, 14, 24, -16, -27, -17, 18, -33, -3, 5, -55, -58, 63, -110, -65, 52, -75, 31, -30, 7, 50, -45, -58, 55, 
  74, -77, -15, -31, -13, 25, 47, 24, 6, 2, -70, -78, -44, 38, 42, 41, -16, 29, -77, 19, 67, 49, 48, 18, -74, -8, 45, -67, 34, 32, -15, -60, -56, 52, -38, -19, -44, 8, -58, -51, -4, 33, 36, 10, -20, 56, -45, -25, 48, -2, 0, -43, 30, -13, 51, 8, 49, -61, -37, -73, 34, -35, -48, 79, -27, -9, -24, 14, 59, -39, -9, 71, 1, 41, 40, 22, 6, -36, 64, 75, 24, 74, 6, 66, 51, -2, -75, 53, 15, 30, 49, -37, -71, 20, -34, -54, -71, -4, 2, 51, -56, 32, -14, 24, 6, -40, 57, 71, -27, -64, -21, 12, -12, -31, -67, 13, -3, 70, 49, 80, -6, 17, 61, -66, 14, 65, -3, 74, -11, 79, -77, -72, -45, -15, -54, 21, 55, -8, -4, 17, -42, -13, -56, 40, 8, 3, 67, -69, -27, 59, 49, -64, 62, 15, 39, 52, 10, -36, 79, 26, -7, -65, 25, -31, -78, -65, -18, 62, 72, -24, 12, 69, -61, -18, -41, 6, -78, 
  7, 6, -2, -19, 47, -64, -21, 63, 46, 63, -4, 32, 35, 6, -40, -55, 48, 5, 74, -78, 46, 4, 60, -7, 46, -28, 50, -70, -2, 59, -56, 15, 38, -76, 30, 85, -44, -24, 27, 66, 41, -57, 8, -56, -51, 45, 21, -13, -63, -2, -53, -11, 48, -23, 26, 78, 17, -11, -3, -90, 76, -36, -7, 1, 20, -17, 21, 51, 44, 16, -23, 67, 50, -99, 2, -67, -66, 62, -62, -30, -39, 12, -44, -7, 6, 17, -68, -2, 86, -4, 75, -15, 23, 29, -60, 73, 57, 63, 6, -18, 60, 44, 67, -58, -38, -57, -82, 28, -38, 22, 32, 65, -51, 63, 30, -59, 41, 10, -61, 67, 1, -4, 73, 49, 51, 13, 69, 69, -61, 9, 77, -31, -23, 85, 49, -3, -16, -61, -38, -16, -40, -16, 54, 30, -48, -67, -27, 44, -75, 44, -80, -25, -59, -74, 19, 60, -71, 0, -74, -82, 79, 50, 5, 30, 75, -19, 13, 20, -52, 46, 86, -29, -31, 8, -20, -24, 40, 
  63, -8, 9, 73, 49, -62, 54, 36, 57, 7, -14, -46, 72, 10, -39, -23, 79, -49, 60, 44, -15, -23, 28, 38, -20, -38, -20, 37, -69, -83, -73, -52, -34, -9, -50, -62, 22, -4, -43, 79, -63, 11, -64, -50, 20, 69, 36, -50, -20, -31, -79, -11, -66, 22, -58, -42, 57, 81, -16, 52, -74, -38, -6, 23, -29, 50, 21, -33, -30, 45, -13, -18, -2, 51, -10, 22, -36, 5, 13, -21, -27, 23, -57, -8, -53, 23, 49, -55, -8, -71, 80, 11, -71, -52, -13, 16, -29, 50, 69, 28, -42, -35, 54, 53, 7, -55, 69, -70, 34, 92, 13, -77, 49, -26, 45, -14, 61, 9, 5, -67, -65, -19, 29, 19, 76, -1, -42, 89, 20, 70, 82, -4, 6, 53, -41, 39, -42, 26, 65, 16, 71, 43, -58, 73, -13, -12, -67, -25, 12, 30, 49, -69, -43, 24, -27, 9, 83, -60, -54, -14, -4, -85, -36, -67, -52, -2, -64, -48, -30, 27, -21, -10, 6, 29, -31, 40, 5, 
  7, -20, 27, -76, 27, -17, -40, 8, 61, -28, -17, 42, 1, 66, 28, 50, -59, 61, 56, -9, -41, -51, -32, -54, -24, 17, 28, 7, -26, 35, -17, -53, 21, -47, 14, -8, -56, -69, 55, 21, 3, 42, 11, 13, -37, 81, 62, -44, -32, -16, -54, 31, 22, 24, -5, 25, 35, 33, 42, -32, -65, 59, 43, 3, 6, 27, 51, 3, -69, -79, 38, 54, 31, 80, 5, 69, 74, 67, -7, 24, 73, -43, -36, 33, -66, -38, 82, -48, -65, 45, 43, -64, 45, 77, 23, 38, 73, 53, 36, -44, -14, -26, -13, 58, -8, -8, -33, -63, -24, 61, -34, -29, 12, 10, -69, -43, 68, -35, -65, -65, 63, -53, -16, -70, 77, 70, 28, -72, 54, 27, 3, 36, 5, -1, 57, -19, -30, 60, -59, 0, 58, -32, 53, -68, -43, -46, -36, -53, 28, -11, -76, -28, -9, -73, 44, 8, 71, -43, 62, -60, 17, 67, 36, 60, -73, -38, -51, -71, -66, -43, -17, -29, -29, 64, -52, 84, 48, 
  34, -8, -40, -14, 4, -37, 66, -33, -59, -4, -26, -56, -33, -21, 62, -27, -13, -59, -22, -69, -18, -49, 40, 34, -22, 1, -66, -58, 37, -1, 0, 17, 40, 72, 60, 70, 6, 43, -26, 14, 79, 52, -44, 24, 24, -31, 57, 7, -34, -35, 24, 63, 21, -22, -22, 31, 8, -63, -18, -56, -67, -53, 57, 36, -73, -70, 40, -39, -64, 83, 59, 48, -12, -8, 7, 31, 59, 30, -69, -22, -34, -19, -28, -3, 13, 58, -25, -55, 10, 74, 50, -54, -53, -61, 56, 26, -45, -43, -10, 46, -24, -32, -42, 40, 57, -42, 27, -44, -34, -84, 75, -44, 79, -18, -75, -64, -49, -33, 23, -65, 33, 0, 81, -38, -63, -71, -10, 24, -74, -24, 57, 18, 30, 37, 80, 41, 7, -9, -9, 60, 48, -67, -27, -73, 11, 71, -28, -35, 42, 67, -34, 66, 66, -6, 59, 69, 73, -2, -53, 11, -12, -42, 2, -73, -31, -51, -53, 67, 43, 50, 31, -62, -61, -17, -73, -47, 45, 
  -19, 88, 16, -2, 42, -21, 7, 31, 56, -17, -17, 75, 24, -47, -62, 20, 5, 68, -50, 11, 63, 40, 25, 34, -34, -47, -27, -40, 24, -28, -26, 74, 60, -8, -69, -14, -16, -29, -50, -59, 16, 9, 84, 46, 64, -21, 25, 79, 71, 85, 18, -64, -61, 22, -22, -48, 4, 39, -55, 77, 45, -8, 54, 40, 0, 34, 24, 3, 18, 8, -49, -44, -7, 1, 78, -31, 33, -46, -40, -12, -17, -8, -1, 46, 27, 41, -60, -5, 58, -76, 51, -51, 35, 48, -8, 40, -69, 73, 44, 40, 27, 16, -73, -36, -16, 22, -53, -69, 5, 77, -42, -55, 3, 82, 43, -47, -66, 23, 44, -31, -45, 42, -16, 35, 47, -59, -4, 6, 18, -11, 19, -36, 17, 38, -36, 13, -7, 13, -50, 19, -61, -7, -44, 55, -61, 66, 9, 7, -50, -41, -12, 11, -17, -53, -76, 40, -22, 25, -81, 14, -67, 76, 20, -64, 11, 33, -60, -20, -58, 41, 22, -29, -59, -42, -62, -64, 18, 
  -1, -67, 35, 52, 61, -33, 36, 54, -70, 34, 73, -76, 57, 69, 24, 64, 8, 57, -9, 63, -25, -43, 66, 33, 47, -2, -23, 38, -6, -56, -52, -54, 28, 74, -18, 46, 16, 11, 65, 76, 29, -27, 8, 9, 45, -32, -58, 25, 40, -29, -43, 3, -27, -22, 32, -1, 32, 31, -42, 48, -33, 55, 48, -15, 17, -7, 42, 35, 25, 71, -7, 20, 73, -74, 25, -66, -35, -74, -74, 54, -12, 37, 13, -56, -38, -5, -11, 21, 10, 66, -13, -21, 13, 68, 63, 72, 77, -54, -80, 47, 47, 26, -15, -59, -2, 21, 64, 57, 78, -23, 34, -62, -59, -48, -10, -54, 16, 67, 49, -21, 50, -13, 66, 19, -44, 62, -14, -56, -10, 53, 18, -24, -23, -56, 51, -33, -15, -68, 50, 68, -61, -61, -30, 31, 71, 43, 16, -27, 43, 63, -66, 38, 3, -8, 34, -34, -30, 25, -50, 32, -65, 3, 22, -69, 1, -76, 63, -19, -63, 76, -84, -16, -48, -19, 15, -57, 33, 
  67, -45, -38, -1, 47, 8, 0, 44, -65, -59, 51, -19, -53, -28, -30, -67, 36, 20, 6, -21, 34, -54, -13, 60, -30, -6, -22, 61, 64, -41, -2, -4, -77, -31, 44, -72, -45, 5, 54, 43, 11, -46, 12, 41, -5, -57, -41, 56, 12, 7, 52, -34, -63, -32, -1, -30, -49, 60, 34, 1, 77, 29, 0, -3, -58, -10, 59, -41, 78, -58, 47, 10, -5, -43, 8, 51, -14, -12, -35, 16, -41, 20, 63, 10, 64, 52, -43, -38, -65, 5, -2, 63, 38, 29, 63, -71, 14, -65, 26, -35, -4, 45, -1, -55, 2, 2, 21, -72, -30, -42, -30, -65, -55, 27, 7, -18, 77, -54, 52, -70, -32, -72, -44, -55, 22, -38, 61, 82, 59, 45, -1, -4, -71, 13, 4, -32, -35, -65, -17, 91, -46, 17, 14, 64, -32, -43, -74, 14, -80, -70, -24, -8, -27, -76, -58, -23, 5, -27, -45, 7, -31, -52, 55, 42, -15, 50, -52, -39, 76, 63, -38, 79, -46, 51, 38, 31, 68, 
  46, 1, -28, 72, 12, 58, 66, 46, 22, 0, -75, 80, 27, -10, -40, -14, 62, 20, 30, 18, -51, -43, 36, 18, -13, -1, -65, -29, -36, 8, -53, -21, 0, -11, -41, 25, 53, -77, 57, 17, 72, -43, -11, -69, 17, 28, 14, 65, 22, 22, 18, -34, 62, 20, -3, -26, 59, 31, -86, -74, 70, 31, -66, 24, 70, -41, 64, 0, -15, 51, 23, 35, 71, 36, 11, -11, 43, -20, -27, 11, 1, -28, 35, 69, -70, 31, -21, -70, -19, 71, 5, -65, 57, -66, -28, -80, 1, -54, 74, -70, 42, 4, 5, 61, 71, -63, 66, -62, -40, -1, 46, -66, 70, 67, 73, -54, -7, 80, -30, -20, 65, -94, 25, -45, 0, 78, 72, -19, 20, -19, 19, -13, 6, -33, -50, -75, 51, 62, -46, -82, -28, -53, 56, 31, -58, -83, -53, 3, -7, -22, 19, -58, 65, -55, 18, 1, -7, -18, -47, -71, 11, 25, 20, 3, -41, -62, -9, -51, 9, -1, 30, -74, 25, -37, -54, -15, 19, 
  19, 10, -7, 35, -28, -5, 12, -42, -24, -15, -25, 28, 61, -34, 82, -53, 36, -35, -49, -91, 57, -3, -13, 82, -17, 16, -48, -12, -56, -30, 63, -48, 50, -80, 4, 1, -11, 52, 61, -41, 65, -38, -50, 56, 52, -70, 38, -38, -62, -58, 16, 59, 55, 22, 34, 46, 15, 19, -27, -50, 7, -28, 10, 20, -50, 43, 80, -16, -25, -12, 37, 0, 78, 1, -10, 79, -62, -69, -26, 67, 22, -61, 44, -67, -70, -49, 2, -9, -65, 73, 40, -75, 12, 6, 45, -42, 36, -66, 48, -65, -65, -1, -15, 2, 86, -53, 18, 18, -38, 38, -6, -37, -36, -28, -12, -40, 37, -32, 19, -39, -22, 48, -58, -77, -53, 11, -43, -46, 17, 45, 47, -27, -48, -24, -26, 32, -23, -12, 28, 29, -35, 30, -30, -55, 68, -49, -61, -40, -58, 32, -20, 69, -29, 33, -53, -32, 21, 40, 46, -53, 18, 17, -39, -20, 46, -55, 78, 52, 54, -76, 81, -56, -56, 44, -13, 11, -31, 
  9, -58, 50, -47, 78, 67, 37, 58, 8, 15, -32, 40, -77, -65, -16, -9, -56, -62, 55, -57, 69, -59, 67, 39, -63, -43, -16, 83, 85, -82, 78, 50, 14, -66, -78, -26, -17, -36, -50, -60, 21, 25, -27, 52, 45, -41, -70, -56, -49, 61, -78, -16, -12, 25, -74, -57, -7, -49, -63, 66, -31, -5, -44, 63, 13, 49, -50, -8, 53, 15, 49, 34, -22, 51, 52, -72, -2, -15, 3, -8, -5, -65, -65, 11, 79, 2, 28, -54, -43, 77, -9, 25, 31, 49, -23, 8, -32, 60, -7, 65, -6, 47, 62, 73, 9, 35, -19, -33, 9, -2, -61, -15, 54, 51, 18, 21, 53, -62, 33, -32, -29, -7, 39, 61, 42, 50, -19, 33, 60, 54, -44, 45, -69, -46, -80, -78, 8, 39, -13, -10, 34, -69, 29, 54, -31, -50, 51, -70, -58, -77, -9, 80, 28, -40, -45, 43, -49, 81, -26, 71, 18, 36, 52, -33, 63, -61, 79, 72, -19, 46, 13, -77, -10, 67, -2, 16, 5, 
  77, 0, -2, 23, 85, 61, -51, 19, -25, 48, -23, -44, 62, 80, -43, -52, -27, 19, 64, 10, -36, 77, 56, -39, -62, -50, 22, -64, 39, -35, -52, 8, 85, 65, 75, 43, -57, -20, 76, 11, -33, 40, -5, -57, -1, 23, -32, 25, 43, 12, 81, 73, -103, 19, -43, -41, -15, -66, -17, 54, -21, 64, -5, 51, -68, 50, 23, 50, -14, 36, -27, 43, 24, -57, 41, 7, -18, -10, -8, -23, -24, 50, -3, -66, -22, -28, -67, -71, -21, -10, 7, 64, 78, -53, 67, 70, -64, 55, 17, -70, -48, 62, -19, 59, -24, -58, -12, 63, -5, 35, 84, -33, -3, 47, -51, 26, 56, -36, 23, 40, -62, 14, 60, -11, -3, 50, 64, -36, 57, -73, 28, -47, -23, 63, -59, -3, 52, 30, -29, 31, -36, 67, -79, -77, 32, 42, -63, 7, -45, -48, -37, -71, 30, 3, -71, 41, 2, -29, 33, 43, -37, 9, 48, 38, 15, -47, 60, 78, -3, 36, -78, 13, 36, -21, -49, 25, -3, 
  16, -32, -35, -31, -46, -71, -26, 66, 58, 40, 66, 73, -43, 122, 43, 25, 101, 39, 37, 93, 63, -53, -44, 16, -21, -5, -69, -3, -50, 67, 77, -26, -4, 69, -27, 69, 63, -15, -59, 27, 101, -13, -62, 19, -61, 53, 62, 19, 21, -56, -28, -34, 2, -47, -17, -24, -65, 60, -19, -63, 21, 35, -27, -8, -54, 58, 16, 51, -27, 72, 94, -28, 57, 61, 54, -72, 51, -18, -69, 1, -15, -38, 44, -39, -1, 12, 75, 47, 58, 33, 74, 39, 37, 31, 107, -77, -25, 23, 65, -57, 55, -16, 15, -53, -30, -73, 64, 40, -76, -45, 50, -35, 83, 43, -67, 52, -35, 55, -36, -7, 24, -21, -66, -51, -42, -37, -66, 96, 75, -63, -41, 27, -15, 10, 4, 60, 12, 72, -67, -26, -6, 53, 30, 37, 34, 17, 11, 13, -3, 49, -63, 48, -55, -4, -54, -44, 8, 101, -34, 8, -5, 66, -39, 85, -52, 29, 70, 74, 81, 90, 41, -37, 44, -2, 29, 86, 34, 
  23, -38, 20, 47, 16, 56, -33, 72, -28, 52, -37, -71, 53, -79, 46, -14, -55, -14, 10, -23, -38, -37, 64, 75, -16, -61, 18, -65, 38, 66, -40, 63, -53, 47, 43, -23, -73, 71, -25, 13, -16, -83, -15, -67, 18, -63, 54, 62, -28, 83, 40, 24, -38, 60, 17, -50, 72, 17, -61, 41, -22, -59, 4, -74, -61, -61, 55, 39, 37, -37, -62, 30, -9, 38, 27, -37, -69, 2, -64, -14, -20, 59, -17, -29, -76, -6, 81, 7, 70, 59, 45, 16, -69, -36, -14, -37, 10, 18, 29, 17, -20, 35, -32, -75, 81, -5, -37, 71, 37, 48, 24, -48, -45, -12, 20, 7, -63, -56, 22, -6, -70, 75, -62, -72, 82, 46, 70, 45, -27, 4, -4, -23, -5, -30, -5, -61, 68, 34, 55, 10, -57, 58, -55, 61, -3, -75, -68, -28, -23, -8, 48, -53, -68, 31, 3, 59, -53, 21, 63, -7, 30, 18, 16, 41, -36, -43, 76, -17, -14, -38, 66, -63, 8, -68, -70, -24, 61, 
  66, -17, -20, -24, 65, 63, -18, 12, 21, 12, 70, 61, 49, 38, -55, -58, -59, 25, -22, -65, -13, -11, -9, 41, -28, -78, -19, 48, -43, -72, 72, 54, -15, 42, 2, 56, -78, 7, 61, -2, -10, -77, 8, -45, 24, 56, 52, 14, -23, 1, -40, -53, 75, -66, -54, -6, 15, 8, 7, -23, -23, 4, -39, -33, 77, 82, 67, 44, -39, -4, -67, 9, -55, 75, -56, 37, 20, -10, -25, -59, -3, 8, 27, 20, -48, 20, 55, 12, -55, 4, -67, 50, -48, -71, -74, 25, 53, 40, -32, -26, 6, -30, 52, 5, 16, -65, 65, 61, 50, -25, -22, 31, 21, 80, -64, -16, -47, 14, -20, -40, -35, 33, -65, 43, 3, 32, -40, 16, -17, -72, 60, 76, -45, 15, -72, 55, 58, -2, -43, -49, -77, -43, 8, 42, 42, -57, -27, -16, 73, 82, 61, -74, -36, 7, 25, 54, 38, 16, -27, -23, -41, 51, 65, -53, 25, 15, 33, -8, -71, -4, 60, 72, -21, -4, -6, -68, -15, 
  32, -73, -68, 75, 26, 40, -16, -108, -46, -12, 39, 35, -50, 109, -78, -20, 113, 41, 8, 119, 52, -37, 75, -61, 34, 86, 39, 65, -81, 78, -23, 0, -66, -14, -51, -64, -50, 30, 13, 24, 70, 32, 64, -49, 69, -16, 18, -41, 0, -15, -71, -12, 23, -19, 55, 60, -16, 56, -69, 29, 10, 12, -67, -52, 74, 77, -64, 118, 16, -1, 102, -33, 11, -23, 8, -71, -1, 0, -48, -45, 58, -42, 32, -34, 14, 6, 24, -41, -42, -23, -72, -47, -62, 73, 35, -20, 3, 20, -71, -23, -21, 36, 55, -59, 13, -43, 36, -34, 21, 87, -44, -19, 15, 67, 22, 2, -13, -37, -6, 53, 55, -67, -69, -4, 64, -47, 71, 51, -67, -16, 79, 48, -70, 14, 63, 19, 18, -14, 15, 60, -26, -35, 3, 34, -1, 54, 49, 46, -55, -28, 38, -77, -18, 47, 30, -3, 0, 78, -37, 80, 21, -2, 49, -6, 64, 52, -88, -26, 19, 13, 0, -44, 44, 69, -26, 60, 24, 
  22, 3, -12, -57, 13, 28, 2, 57, -53, 49, -30, -22, -52, 9, 26, 45, -34, 68, 32, -64, 6, 23, 11, -16, 18, -32, -58, -50, 37, -50, 75, 42, 53, -17, -27, -63, -35, -76, -47, 14, 28, 7, -63, -5, 20, -43, -11, 49, 27, 40, -36, -68, 38, -17, 49, -29, -60, -68, -71, -43, 52, 23, 41, -33, -31, 23, 35, -18, -77, 33, -14, 24, 19, 76, 55, 26, -55, 11, 65, -9, -22, -22, -78, 8, -20, -50, 12, 42, -30, -9, -61, -23, -42, -69, -10, -47, 71, -13, 34, -40, -60, 65, -39, 43, -51, 77, 30, -49, 54, -30, 39, 10, 1, -55, 46, -43, 3, 43, 96, 46, -41, -10, -68, -57, -69, -21, 39, 61, 27, -69, 30, -24, -9, -88, 13, 45, -56, -37, 21, -3, -34, -55, 54, 21, 64, -39, -55, 50, -20, -67, 27, 52, -3, -66, 63, -73, 67, 48, -24, 5, 48, -47, -61, -51, 76, -77, 34, 30, -3, 64, 46, 29, -47, 33, 64, -42, -67, 
  75, -45, -14, -41, -66, -68, 69, -39, 66, 45, -66, -73, -64, -63, 67, 64, 5, -42, -4, -11, -41, 74, -25, 30, -14, 30, 43, -66, -11, 61, 30, 29, -24, -17, -61, 44, 82, -37, -40, 49, 66, -25, 2, 35, -9, 26, 43, -29, 66, 61, 65, 49, 17, 11, -55, -35, 15, -37, -61, -17, 48, 60, 56, -12, -26, 65, -32, -32, 33, 5, -17, -20, -21, -46, 43, -49, 42, 48, -59, 35, 64, -23, 62, -76, 75, 37, -22, 34, 50, -11, -58, 75, -11, 81, 29, -28, 25, -74, 26, 55, -1, -53, 72, -15, -11, 45, -5, -40, 56, 37, -52, -70, -37, -28, 76, -74, -63, 11, 64, -12, -30, 57, -35, -3, 71, -54, -39, -13, 24, -17, 32, -3, -19, 10, -74, -24, -58, -63, -45, 39, 46, 50, -51, 62, 15, -49, 44, -74, -8, -46, -51, 49, 51, -60, 17, 58, -25, -23, -46, 23, 67, -8, 23, -43, 41, 81, 30, 30, -4, -72, 53, -17, -48, 29, 48, -34, -51, 
  39, -59, -30, 18, -27, 38, 23, 49, -20, -73, 66, -66, 28, -57, -8, -36, 54, -52, 48, 47, -57, -28, -56, -22, -52, 12, 2, 75, -36, 42, 38, -33, -32, 69, 72, 76, 14, 54, 22, -31, -40, -60, 6, -6, 77, 44, -39, 34, 36, 43, -62, -11, -28, 67, 62, -68, -47, -29, -9, 44, 62, 13, 50, 50, -36, 33, 44, 14, -66, -37, -8, -64, 53, -20, 43, -47, -72, 57, 59, 25, -55, -2, -4, -40, -8, -15, 15, -33, -79, 49, -38, -64, -26, -29, 61, 47, -48, -10, -41, 3, -79, 62, 43, 63, 58, -52, 70, 3, -35, -11, -19, -29, 11, 6, -47, -35, -22, -16, 58, -7, -57, 74, 77, 49, 54, -75, -19, 51, 52, -77, 8, 45, 20, -38, -22, 69, -1, 6, -43, -75, -30, 0, 33, 54, -16, -9, -71, 71, -20, 82, -23, 74, -60, 0, -64, 59, -39, 43, -56, 58, 65, 28, 34, -66, -17, 59, 21, -37, 70, -53, 41, 74, -46, -16, -4, 14, 28, 
  -3, -40, 29, -5, 6, 26, -60, -71, -8, -73, 72, -74, 20, -41, -27, -67, 46, 72, -63, 81, -66, 56, -69, 69, 18, -73, -30, 12, 52, -76, -46, 43, 76, -48, -39, -71, 14, 32, -22, 5, 43, -28, 46, -60, 29, 14, -25, 31, -42, 18, -64, -55, -18, -5, -65, -14, 23, 6, -8, 74, -22, -25, 75, 42, 68, -16, 13, -51, 20, 48, -76, 19, 66, -58, 46, -47, -59, 28, -56, -73, 6, 12, 30, -25, 61, -46, 20, 68, -66, 58, -46, -16, 24, 64, -13, 37, -9, 9, -64, 50, -63, -3, -22, 80, 60, 69, -64, 16, 33, 63, -64, 36, 74, 18, 6, 54, -27, 0, -73, -38, -72, 42, 18, 26, -57, -64, 63, 48, -66, -11, 60, 17, 77, -51, -24, -15, -16, 72, 26, -48, 65, 69, -14, 68, 52, -17, -2, 1, 71, 38, -24, -66, 60, 76, -36, -78, 34, 16, 64, 78, -50, 78, 31, -23, -19, -59, -38, 47, 25, 61, 54, -38, -6, -50, -66, -48, 36, 
  -24, 77, 38, 21, -46, -31, -24, 45, 47, 50, -58, 34, 23, 41, -54, 5, 26, 15, 41, 33, 26, 77, 74, 71, -22, 48, -52, -11, -48, -73, -42, 77, 51, -22, 87, 11, -67, -5, -69, 4, -25, -13, -61, -60, -23, 70, 23, -15, -40, 91, 22, 69, -37, 24, 8, 39, -50, -1, 74, 21, 80, 23, 12, -8, -26, -13, -68, 59, 37, -13, 102, 45, -41, 51, 50, -69, 40, -67, 58, 23, -49, -41, -15, -8, -65, 46, 72, -76, 41, 75, -63, 25, 1, -19, -57, -49, -19, -46, 38, 39, 28, 4, 78, 63, -16, -24, 66, 59, -16, -63, 14, -16, -31, -21, 10, 27, 1, 19, 32, 13, 40, 39, 76, 70, -37, 7, -10, -44, 13, 60, -34, -11, 50, -80, 6, -19, -82, 80, 5, -57, -64, -45, 71, -15, 11, 62, -52, 39, -46, -35, -70, -62, 33, -10, 39, 39, -39, 23, -51, -56, -18, -13, 27, 40, -25, -55, -9, 76, 14, -9, -35, 78, -68, 41, 81, -52, 42, 
  76, -24, -62, -24, 19, 67, -60, 64, 23, -69, 7, 12, 13, 14, 68, -79, 68, -12, 42, -64, 61, -68, -30, 0, -14, 63, 77, 46, 66, 83, -65, -45, 70, -65, 50, 23, 28, -17, 0, 50, -27, -82, -51, -28, 60, -34, -13, 46, 28, 62, 22, -3, -3, -73, -43, 73, -51, -75, -33, 67, 23, -54, -21, -47, -47, 36, -30, -35, 61, 16, 6, 58, 38, 82, 74, -48, -61, 67, 45, -5, -30, 2, -69, -19, 61, 20, 5, -8, -68, -77, 64, -82, 16, -55, -15, 73, -39, -78, -50, 31, -2, -54, 67, 74, -4, 16, -95, -13, -42, -32, -55, -47, -81, 40, 5, -51, -61, 50, -57, -52, -8, -64, -76, 33, 54, 29, -49, -66, 61, 9, 66, -22, -63, -8, 69, 5, -1, -20, -46, -36, -42, -45, 63, -70, -76, 53, 39, -61, 20, 71, 48, -50, -36, -72, -33, -23, -34, -15, 9, 58, -62, 0, 29, 7, 4, -77, -58, -32, -75, 69, 72, 35, 77, -80, 64, 25, -31, 
  -29, 65, 1, -61, -41, 31, 72, -80, -2, 58, -29, -26, 30, -46, -54, 78, -95, 44, -43, 1, -36, -69, -56, -30, 56, 0, 71, -33, 55, -71, 14, 56, 22, -22, 77, 27, -73, -44, -73, -1, 83, 54, 30, -68, -45, -73, -50, 14, -13, -82, -17, 31, -67, 28, 44, -7, 61, 32, 40, -6, -8, -7, -59, -16, -16, -71, -47, 32, 66, 74, -59, -8, -20, -38, 72, 75, 46, 43, 47, 50, 13, -8, 104, 13, -3, -67, 20, 58, 25, 5, -52, -106, 69, 24, 28, -72, -58, -103, 11, 22, 12, 6, 15, 68, 50, 48, -6, -21, 27, 69, 38, -6, 8, -68, 14, -7, -56, 10, -42, 49, -67, 55, 71, 30, 127, -11, 33, -52, 55, -46, 13, -65, -63, -35, -45, -80, 28, -38, -79, -1, 39, -68, -8, -62, 39, -75, 72, -79, -35, -62, -25, -70, -57, -4, 1, 42, 20, -85, 59, -6, 80, -58, 41, 77, 75, 15, -22, -7, 7, 82, -38, -28, 27, 28, 82, 13, 54, 
  -20, 65, 71, -16, 26, 60, 13, -11, -34, -12, 0, -52, 51, -9, -55, 46, -10, -42, 66, 78, 7, 57, 78, 0, -51, -26, -45, -66, 12, 56, 47, -23, 38, -14, -44, 58, 15, -17, -38, 26, -67, 60, -13, 51, -46, -2, -6, -2, -70, -39, -28, -71, -57, -3, 38, -27, -71, 12, -11, 69, 31, -11, 59, -43, 75, -21, 27, 69, -60, -42, 12, 79, 66, 9, 32, 56, 14, -62, 67, 8, -51, -57, -53, -60, 7, -31, -47, 42, -25, 38, 29, 8, 80, 49, -67, -62, 59, -36, 52, -45, 46, -55, 52, -45, 18, 67, -18, -56, 46, -55, -47, -60, -2, 7, 28, -75, 53, 16, 40, -9, -67, 16, -51, 17, -4, 16, 24, 8, -28, 49, -67, 14, 44, 28, 80, -21, -25, -12, -42, 72, -4, -73, 24, 32, 49, -29, -39, 60, 2, 68, 41, 59, 73, -39, -25, 37, -56, 48, 72, 13, 36, 46, -31, 58, 50, -32, 70, 52, 64, 53, 27, 58, -76, -51, 27, 54, 75, 
  -25, -11, 47, -42, 14, -26, -15, 54, -50, 0, -48, -73, -64, 98, 73, 70, -32, 29, 78, 37, 30, -7, 55, -41, 30, 6, 18, -65, 62, -6, 21, 76, 68, 55, -41, -77, 8, 43, -76, 51, -28, -10, 59, -25, 80, -5, 1, 63, 57, -66, -3, -12, -62, 42, -68, -14, -32, -50, 39, 31, 76, -36, -61, 46, 24, -16, 39, -14, -50, 64, -23, -13, -50, -34, 52, 53, -62, 62, -15, 26, 78, 11, -50, -58, -8, 25, 0, -48, -62, -20, -9, 49, 49, -60, -23, -46, -68, -53, -3, 34, 30, 25, 13, 69, 17, -43, 107, -7, 32, -17, -34, 51, -45, -11, -56, 52, 80, -30, -29, 34, -78, 45, -32, 3, -57, 29, -49, -3, 64, -56, 45, -66, 3, -29, 65, 24, 34, -36, -24, -42, 75, -52, -67, -33, -37, 12, 61, 44, 2, -19, 26, 41, -68, 11, 2, -43, 5, 4, 24, 24, -75, 48, -38, 57, 47, 73, 34, 56, -75, -52, 4, -70, -8, -64, 62, 16, -60, 
  73, 56, 34, 66, 67, 47, -15, 11, -32, 21, -3, 55, -55, -43, -59, -60, -29, -59, -67, -49, 69, -32, 58, 74, -62, 67, -83, 10, -30, 10, 30, 37, -65, -67, 56, -51, 46, -18, 69, -1, -2, -72, -34, 47, -39, -2, 61, 2, 57, -34, 38, -64, 39, -81, 50, -51, -17, -11, -5, -34, -62, 32, -34, -38, -51, -20, 73, -65, -78, 30, -1, 64, -73, 25, 29, 12, -79, 27, -55, 26, -52, -14, -52, 71, 14, 14, -18, 48, 11, 60, 49, 72, -36, -61, 9, -66, 23, 12, -46, 13, -10, 54, 67, 6, -4, -79, 20, 41, 32, -82, 38, -32, -59, -79, 61, 57, -49, 47, 73, 47, -23, -13, -52, 3, 78, -40, -39, 24, -7, -43, 13, -2, -56, -29, -57, 64, 60, -75, 50, -14, -64, -70, 18, 16, 49, -8, 10, -10, 40, 47, -50, 55, 45, -46, -51, -26, -52, -63, -25, -35, 29, -60, 25, -25, -31, -20, -7, -79, 33, -32, 46, 41, -43, 16, 50, 80, -66, 
  1, -22, -6, -74, -18, -29, -65, -24, 59, -83, -7, 53, -3, -32, 37, -73, -39, -43, -35, 61, 76, 57, -63, -41, 72, -14, -18, 59, -17, 58, 40, -61, 65, 13, -15, -50, -14, -10, -36, 56, -29, -60, 9, 40, 73, 58, 4, 75, 39, -26, -56, 63, 61, -16, -58, -44, 47, 6, -5, 1, -28, 28, -38, 56, -26, 21, -74, 13, -38, 62, 53, 9, -38, 43, 35, -41, 38, 63, 11, -7, 10, 35, 13, 58, 0, 31, -67, 47, -84, -63, -29, 1, -25, 45, -33, -31, 70, -18, 11, 9, -17, 70, -79, -62, -10, 20, 40, 13, 24, 78, -32, -30, -11, -35, 8, -67, 18, -64, -11, -84, 22, 48, -3, 62, -46, 16, 61, 37, 52, -34, 3, -38, -74, 0, -18, -18, 35, -71, 44, 18, 18, 40, -5, 46, -23, -57, -58, -75, -71, 10, 74, 33, 35, 3, -48, -37, 43, -34, -38, -10, 36, -58, -67, 28, 41, -36, 24, 68, -77, 72, 22, -65, -9, -66, 20, -70, 4, 
  -30, 42, -38, 20, 50, 28, 23, -57, -34, 15, 66, 68, 32, 30, 24, -55, -2, -2, 39, 73, 82, -41, -41, -75, 17, 31, -63, -13, -72, -13, 47, -80, -13, -37, -74, -62, 60, -70, 81, 59, -50, 31, -4, -41, -38, -29, 13, 28, -71, 15, 53, -40, 38, 10, -53, 46, 5, -30, 14, 3, 64, -68, -74, 26, 46, 41, -63, 21, 46, -11, 40, 29, 20, 12, 78, -18, -44, 7, -36, -45, 80, -21, 63, -68, 69, -65, -65, -35, 18, -15, -49, -44, -43, 44, 47, -19, 1, -12, 38, 38, -20, 65, -59, 28, -20, -7, 49, -72, 68, 7, 4, 43, -64, -34, -53, 26, -71, 36, 14, -25, 29, 60, -14, 51, 14, 10, 17, -43, 54, -36, 8, -63, -41, -18, -56, -40, -49, 25, 75, 11, -70, 11, 60, 6, -68, 70, 81, 34, -26, 84, -50, 11, -49, 5, 33, -30, -74, 77, 33, 24, -53, -24, 43, -71, -14, 61, 72, -50, 10, 49, 22, 6, -68, 24, 46, 64, 23, 
};
const TfArray<2, int> tensor_dimension4 = { 2, { 118,177 } };
const TfArray<1, float> quant4_scale = { 1, { 0.0017947738524526358, } };
const TfArray<1, int> quant4_zero = { 1, { 0 } };
const TfLiteAffineQuantization quant4 = { (TfLiteFloatArray*)&quant4_scale, (TfLiteIntArray*)&quant4_zero, 0 };
const ALIGN(8) int8_t tensor_data5[33*118] = { 
  -13, -16, 2, -7, -19, -18, 1, 12, 0, 16, -9, 16, -17, 11, 5, 4, 1, 0, -10, 2, -19, 6, 8, -18, -3, -3, 2, -19, -10, -8, -18, -8, -16, 13, 7, 5, -15, 12, 0, -4, 12, 14, 16, -7, -21, 10, -20, -14, 18, -5, -19, 19, 8, -12, -18, -11, 5, -9, -4, 12, -5, 19, 11, 18, 1, 2, -7, 0, -13, 12, -17, -5, 2, 11, -18, -5, 19, 5, -17, 9, 12, 8, -2, 3, -12, -2, 12, -14, -15, -12, 2, -1, 17, -19, -8, 12, 6, -2, -9, 5, 4, 18, 14, -17, -19, 3, 7, 20, 19, 19, 12, 1, 15, 15, 18, 10, 0, -1, 
  -13, -15, -6, -6, -13, 7, 18, 12, -17, -3, 18, 1, 12, 17, -11, 15, 11, -5, 0, -5, 20, -5, -4, -1, 1, 18, 7, 18, -6, -6, 1, -18, 2, -14, 15, -17, 3, 1, 1, 13, 11, 6, -22, -11, 10, -2, -12, -12, -17, 14, -5, 16, -4, 4, -11, -3, 9, -17, -11, -8, -9, 13, -15, 8, 6, -7, 15, 9, -21, 20, 16, 6, 8, -16, 15, -4, 5, 16, -13, 9, -14, -8, -8, 16, -32, -1, 4, -13, -7, 21, -1, -7, -19, -21, -17, -18, 19, 15, 15, 6, 4, -8, 9, -9, 7, 11, -10, 4, -13, -20, 3, -10, 12, 18, -13, -9, 18, 0, 
  -16, 1, 11, 3, 7, -12, 15, 19, 0, -19, -4, 13, -17, 3, -9, 6, -7, 4, 12, -14, 2, 17, -3, 9, -11, 16, 1, 0, 17, -7, -21, -12, 13, -1, -7, -6, 20, -7, -9, -6, 2, -1, -4, -15, 6, -12, 2, 3, 0, 15, 10, -11, 3, 5, 0, 11, 6, 4, -10, 6, 17, 1, 4, 15, 13, -12, 0, -12, -17, 7, -12, 7, -11, -4, 11, -12, 6, 11, 2, -8, 8, -4, -5, 14, 11, 11, -4, 2, -9, 1, -2, 17, 12, 20, -14, 18, -5, 1, 8, -1, -16, -17, -2, 18, -7, -15, -3, 6, -19, 14, -10, -15, 14, 14, 5, -11, -6, 6, 
  -14, 16, 14, -11, 9, -16, 7, 19, 9, -11, -1, 1, 0, 17, 8, -13, 18, -14, -3, -18, -20, 14, 9, 19, -21, 3, 8, 14, 14, 0, -14, 6, 10, 17, 15, -20, 17, -12, -12, 20, 12, -17, -19, 7, -9, -11, -2, 14, 13, -2, 9, 2, -11, 2, -10, -17, 5, 11, -2, 18, 14, 7, -20, -6, -15, 18, -13, -18, 12, -5, -10, 11, -21, 16, 14, 7, -8, -7, -14, 15, -7, -15, 4, 14, -9, 19, -15, 18, -2, -3, -9, -15, 11, -1, -5, -7, 16, -6, 11, 6, -5, 20, 9, 2, 2, 6, -11, -12, -19, -14, 16, -14, 21, 17, 17, -13, 18, -14, 
  3, -19, 3, 16, 0, 19, 20, 3, 1, -14, -1, -12, -5, 15, 18, 19, -11, -9, 0, -3, 11, 2, -19, 4, -12, -6, -13, 9, -11, 4, -6, -12, 18, 5, 3, -5, 7, -8, -7, 9, -5, 14, -17, 18, -17, -20, 4, -13, -11, 16, -12, -1, 6, -11, -6, -14, 18, -17, 1, -16, 6, -11, -5, -15, -14, 9, 18, -9, -9, 16, -9, -6, 16, 11, 20, -2, -11, 12, -13, 3, -17, 6, 4, 16, 20, 4, -10, 5, -6, 16, 5, -12, -3, 0, 13, 15, 13, -3, 12, 12, 18, 21, 20, -20, 17, -18, 19, -15, -17, -10, -20, 6, 9, -10, -16, 0, 1, 8, 
  9, 9, -9, 1, -3, 2, -11, 12, -9, 11, -6, 2, -94, 21, -6, -21, -2, 10, -11, 14, -8, -18, 6, 12, 3, 17, 1, 8, -11, 7, 18, -11, 13, 11, -3, 9, 11, -16, -18, 7, -12, 5, 11, -17, -9, 12, 20, -5, -20, 9, -11, 9, 8, 21, 6, 9, -5, 17, -7, -2, 7, -2, -13, -19, 9, 17, -17, 3, -10, 18, -2, 5, -16, -7, 14, -20, -19, 9, 15, -2, -18, 8, 18, 10, 18, -1, -17, 9, -15, 12, -2, -18, 18, -13, -11, 4, -22, -13, -13, 9, -5, 8, 1, -8, -24, 18, -6, -6, 11, -5, 11, 17, 6, -1, -14, -5, 14, -4, 
